tree
version=v4
num_class=1
num_tree_per_iteration=1
label_index=0
max_feature_idx=17
feature_names=msa week age sex eestatu eeclass emprel indstry plantyp prior_util_30 prior_util_90 pm25_week smoke_days active_fire_days pm25_lag1 smoke_days_lag1 active_fire_days_lag1 adj_age
feature_infos=[1:14] [1:13] -1:61:60:59:58:57:56:62:55:63:54:53:52:64:51:50:16:49:47:48:46:18:45:19:43:17:44:24:22:23:15:20:21:42:25:41:40:14:35:38:37:12:39:36:13:11:10:9:34:33:8:7:32:31:6:30:5:29:4:28:3:27:2:65:26:66:68:67:1:69:72:79:71:70:77:74:78:75:76:81:80:73:83:85:82:84:86:87:89:88:90:91:92:93:94:95:96:99:0:98:100 -1:2:1 -1:1:9:4:3:6:2:8:5 -1:1:9:5:2:4:7:3:8:6 -1:1:3:2 -1:2:7:4:6:5:3:1:8:10:9 [1:8] [0:15] [0:19] [0:116.99806241] [0:7] [2:7] [0:116.99806241] [0:7] [2:7] [0:3025]
tree_sizes=589 698 809 807 589 588 913 912 372 806 698 804 589 588 701 700 702 811 807 810 807 806 702 809 705 706 702 702 809 702 916 802 1061 695 802 1231 584 1216 1217 28540 3794 2415 3935 3474 6443 6616 13307 5191 8041

Tree=0
num_leaves=4
num_cat=0
split_feature=9 9 10
split_gain=42.7323 4.41871 0.809263
threshold=1.0000000180025095e-35 1.5000000000000002 5.5000000000000009
decision_type=2 2 2
left_child=-1 -2 -3
right_child=1 2 -4
leaf_value=-0.099999484913545683 -0.091281856101631809 -0.084114965634532121 -0.070013872226387067
leaf_weight=19414.116615235806 719.58503097295761 239.97786675393581 14.391789421439169
leaf_count=1072156 38208 12323 691
internal_value=-0.0994849 -0.0892177 -0.083345
internal_weight=20388.1 973.955 254.37
internal_count=1123378 51222 13014
is_linear=0
shrinkage=0.05


Tree=1
num_leaves=5
num_cat=0
split_feature=9 9 10 10
split_gain=41.3142 4.15809 0.741742 0.00660573
threshold=1.0000000180025095e-35 1.5000000000000002 5.5000000000000009 2.5000000000000004
decision_type=2 2 2 2
left_child=-1 -2 3 -3
right_child=1 2 -4 -5
leaf_value=-0.095241399056984685 -0.086640388071319852 -0.080913180473747293 -0.066298540500192932 -0.077499683341727993
leaf_weight=19200.390736795962 717.48227810114622 152.47950053587556 14.543733267113565 88.130886994302273
leaf_count=1072156 38208 7861 691 4462
internal_value=-0.0947304 -0.0846334 -0.0789582 -0.0796956
internal_weight=20173 972.636 255.154 240.61
internal_count=1123378 51222 13014 12323
is_linear=0
shrinkage=0.05


Tree=2
num_leaves=6
num_cat=0
split_feature=9 9 10 10 10
split_gain=40.5712 3.94624 0.684207 0.0125566 0.0120261
threshold=1.0000000180025095e-35 1.5000000000000002 5.5000000000000009 1.5000000000000002 2.5000000000000004
decision_type=2 2 2 2 2
left_child=-1 3 4 -2 -3
right_child=1 2 -4 -5 -6
leaf_value=-0.091131327896587622 -0.082840374362191799 -0.076891636555233775 -0.062891254764335144 -0.079519081552895748 -0.073592754688221712
leaf_weight=18635.807810381055 633.05731677263975 150.85638628713787 14.577412499114869 71.788194335997105 87.456461757421494
leaf_count=1072156 34382 7861 691 3826 4462
internal_value=-0.0906139 -0.0805371 -0.0749985 -0.0825134 -0.0757124
internal_weight=19593.5 957.736 252.89 704.846 238.313
internal_count=1123378 51222 13014 38208 12323
is_linear=0
shrinkage=0.05


Tree=3
num_leaves=6
num_cat=0
split_feature=9 9 10 10 10
split_gain=40.2734 3.76843 0.633823 0.0205641 0.0164569
threshold=1.0000000180025095e-35 1.5000000000000002 5.5000000000000009 1.5000000000000002 2.5000000000000004
decision_type=2 2 2 2 2
left_child=-1 3 4 -2 -3
right_child=1 2 -4 -5 -6
leaf_value=-0.087548660735436837 -0.079139837844258445 -0.073253133817827817 -0.059764924640648302 -0.075869886925310603 -0.070043249991228573
leaf_weight=17820.314005792141 614.51497601531446 147.79601617716253 14.517734641209243 69.966919835656881 86.024355977773666
leaf_count=1072156 34382 7861 691 3826 4462
internal_value=-0.087017 -0.0768516 -0.0714057 -0.0788167 -0.0721026
internal_weight=18753.1 932.82 248.338 684.482 233.82
internal_count=1123378 51222 13014 38208 12323
is_linear=0
shrinkage=0.05


Tree=4
num_leaves=4
num_cat=0
split_feature=9 9 9
split_gain=40.2534 3.61075 0.280681
threshold=1.0000000180025095e-35 1.5000000000000002 3.5000000000000004
decision_type=2 2 2
left_child=-1 -2 -3
right_child=1 2 -4
leaf_value=-0.084401067421445874 -0.075482935606281998 -0.068912906392831513 -0.062150964984139828
leaf_weight=16835.364842317998 658.6932244990021 213.26364797353745 28.854651428759098
leaf_count=1072156 38208 11548 1466
internal_value=-0.0838486 -0.0735152 -0.068133
internal_weight=17736.2 900.812 242.118
internal_count=1123378 51222 13014
is_linear=0
shrinkage=0.05


Tree=5
num_leaves=4
num_cat=0
split_feature=9 9 9
split_gain=41.9078 3.69895 0.542467
threshold=1.0000000180025095e-35 1.5000000000000002 3.5000000000000004
decision_type=2 2 2
left_child=-1 -2 -3
right_child=1 2 -4
leaf_value=-0.081616675997504232 -0.072306299197596513 -0.065749313001820187 -0.057348452572241262
leaf_weight=15741.256308946759 630.16302136704326 204.96005442738533 28.570406747981906
leaf_count=1071830 38213 11447 1459
internal_value=-0.0810269 -0.07027 -0.0647465
internal_weight=16604.9 863.693 233.53
internal_count=1122949 51119 12906
is_linear=0
shrinkage=0.05


Tree=6
num_leaves=7
num_cat=0
split_feature=10 10 10 10 10 10
split_gain=28.2512 4.96184 1.18051 0.37624 0.0565625 0.0195032
threshold=1.0000000180025095e-35 1.5000000000000002 3.5000000000000004 6.5000000000000009 2.5000000000000004 11.500000000000002
decision_type=2 2 2 2 2 2
left_child=-1 -2 4 -4 -3 -5
right_child=1 2 3 5 -6 -7
leaf_value=-0.079138643804443964 -0.073244531904314167 -0.068048118933545163 -0.060899558766461075 -0.045975939587400427 -0.064703838967219651 -0.06317459944405826
leaf_weight=14230.871083371341 833.59129243716598 238.07813708111644 42.551332217641175 8.8639283431693876 68.327300661243498 0.95597880054265338
leaf_count=1044809 56203 14941 2417 424 4100 55
internal_value=-0.078517 -0.0710918 -0.0660711 -0.058628 -0.0673237 -0.0482702
internal_weight=15423.2 1192.37 358.777 52.3712 306.405 9.81991
internal_count=1122949 78140 21937 2896 19041 479
is_linear=0
shrinkage=0.05


Tree=7
num_leaves=7
num_cat=0
split_feature=10 10 10 10 10 10
split_gain=28.5857 4.82838 1.11269 0.340927 0.0575166 0.0156451
threshold=1.0000000180025095e-35 1.5000000000000002 3.5000000000000004 6.5000000000000009 2.5000000000000004 11.500000000000002
decision_type=2 2 2 2 2 2
left_child=-1 -2 4 -4 -3 -5
right_child=1 2 3 5 -6 -7
leaf_value=-0.0769214656820294 -0.070781592155569992 -0.065501927362771828 -0.058417155365953911 -0.044065122687153749 -0.062170867978374678 -0.060624753436978554
leaf_weight=13103.445717649534 780.93624524772167 226.02526405081153 41.037475169636309 8.7344456575810874 65.354831984266639 0.92038696166127998
leaf_count=1044809 56203 14941 2417 424 4100 55
internal_value=-0.0762632 -0.068576 -0.0635215 -0.0561952 -0.0647764 -0.046249
internal_weight=14226.5 1123.01 342.072 50.6923 291.38 9.65483
internal_count=1122949 78140 21937 2896 19041 479
is_linear=0
shrinkage=0.05


Tree=8
num_leaves=2
num_cat=0
split_feature=8
split_gain=0.0229577
threshold=1.5000000000000002
decision_type=8
left_child=-1
right_child=-2
leaf_value=-0.073344654586548388 -0.07428143002036372
leaf_weight=734.55714717041701 12309.728387789801
leaf_count=62296 1060653
internal_value=-0.0742292
internal_weight=13044.3
internal_count=1122949
is_linear=0
shrinkage=0.05


Tree=9
num_leaves=6
num_cat=0
split_feature=9 9 10 10 10
split_gain=45.3818 3.33117 0.574835 0.141473 0.0445164
threshold=1.0000000180025095e-35 1.5000000000000002 5.5000000000000009 1.5000000000000002 2.5000000000000004
decision_type=2 2 2 2 2
left_child=-1 3 4 -2 -3
right_child=1 2 -4 -5 -6
leaf_value=-0.073153275362027051 -0.062552252343362966 -0.056173808087895287 -0.043130806588587055 -0.058615994661781481 -0.053069722470282882
leaf_weight=11211.068212917075 440.40703789144754 114.35767882503569 12.983748421072958 53.445154208689928 68.70326370280236
leaf_count=1071830 34321 7807 689 3892 4410
internal_value=-0.0723861 -0.0599112 -0.0542722 -0.0621382 -0.0550384
internal_weight=11901 689.897 196.045 493.852 183.061
internal_count=1122949 51119 12906 38213 12217
is_linear=0
shrinkage=0.05


Tree=10
num_leaves=5
num_cat=0
split_feature=9 9 10 10
split_gain=40.6856 2.45677 0.354396 0.0758183
threshold=1.0000000180025095e-35 1.5000000000000002 5.5000000000000009 1.5000000000000002
decision_type=2 2 2 2
left_child=-1 3 -3 -2
right_child=1 2 -4 -5
leaf_value=-0.071519943080861667 -0.060931828695726699 -0.054205463344290862 -0.043981312879453144 -0.05737650364710211
leaf_weight=10158.886441279203 411.55303892679513 174.62111452873796 11.890257970429955 49.175936225801706
leaf_count=1072110 34363 12356 665 3816
internal_value=-0.0707442 -0.05856 -0.0535776 -0.0605649
internal_weight=10806.1 647.24 186.511 460.729
internal_count=1123310 51200 13021 38179
is_linear=0
shrinkage=0.05


Tree=11
num_leaves=6
num_cat=0
split_feature=9 9 10 10 9
split_gain=39.7315 2.32674 0.330834 0.0702903 0.000464454
threshold=1.0000000180025095e-35 1.5000000000000002 5.5000000000000009 1.5000000000000002 4.5000000000000009
decision_type=2 2 2 2 2
left_child=-1 3 -3 -2 -4
right_child=1 2 4 -5 -6
leaf_value=-0.070034489491616669 -0.059211606128617471 -0.052488655543647324 -0.047924378357227571 -0.055663848372100193 -0.039480861264536038
leaf_weight=9164.559717040509 384.4277993356809 166.25341066718102 3.5645167380571356 46.375644439831376 8.0154347922652942
leaf_count=1072110 34363 12356 224 3816 441
internal_value=-0.0692116 -0.0568114 -0.0518604 -0.0588427 -0.042468
internal_weight=9773.2 608.637 177.833 430.803 11.58
internal_count=1123310 51200 13021 38179 665
is_linear=0
shrinkage=0.05


Tree=12
num_leaves=4
num_cat=0
split_feature=9 9 9
split_gain=38.5395 2.20049 0.226752
threshold=1.0000000180025095e-35 1.5000000000000002 4.5000000000000009
decision_type=2 2 2
left_child=-1 -2 -3
right_child=1 2 -4
leaf_value=-0.068679277644461592 -0.057282271495478765 -0.050827373305678984 -0.041514987461626414
leaf_weight=8236.832705270499 402.29983982723206 159.48288299608976 9.948541251011191
leaf_count=1072110 38179 12416 605
internal_value=-0.0678066 -0.0552238 -0.0503054
internal_weight=8808.56 571.731 169.431
internal_count=1123310 51200 13021
is_linear=0
shrinkage=0.05


Tree=13
num_leaves=4
num_cat=0
split_feature=9 9 9
split_gain=37.0884 2.07983 0.213039
threshold=1.0000000180025095e-35 1.5000000000000002 4.5000000000000009
decision_type=2 2 2
left_child=-1 -2 -3
right_child=1 2 -4
leaf_value=-0.067439335919643142 -0.055881023856611506 -0.049432410571774742 -0.040261675504870691
leaf_weight=7378.4347606510855 375.3165913047269 151.68404348380864 9.6654701875522715
leaf_count=1072110 38179 12416 605
internal_value=-0.0665148 -0.0537942 -0.0489083
internal_weight=7915.1 536.666 161.35
internal_count=1123310 51200 13021
is_linear=0
shrinkage=0.05


Tree=14
num_leaves=5
num_cat=0
split_feature=10 10 10 10
split_gain=25.3699 3.17738 0.54593 0.183012
threshold=1.0000000180025095e-35 1.5000000000000002 5.5000000000000009 2.5000000000000004
decision_type=2 2 2 2
left_child=-1 -2 3 -3
right_child=1 2 -4 -5
leaf_value=-0.066295694483518255 -0.058534997207197376 -0.052963136512450409 -0.039467633784622425 -0.04903100991689583
leaf_weight=6419.3652633866295 448.79001372866333 144.51652745530009 11.323319498915223 69.263999139890075
leaf_count=1045041 56264 14976 743 6286
internal_value=-0.0653245 -0.0560642 -0.0511145 -0.0517127
internal_weight=7093.26 673.894 225.104 213.781
internal_count=1123310 78269 22005 21262
is_linear=0
shrinkage=0.05


Tree=15
num_leaves=5
num_cat=0
split_feature=9 10 10 9
split_gain=35.9355 2.17393 0.322363 0.0735523
threshold=1.0000000180025095e-35 1.5000000000000002 5.5000000000000009 2.5000000000000004
decision_type=2 2 2 2
left_child=-1 -2 3 -3
right_child=1 2 -4 -5
leaf_value=-0.065259819831834959 -0.053671573850449739 -0.047907444886365391 -0.037232969008510843 -0.044183078612839675
leaf_weight=5868.9306135862134 289.86528508085757 136.18619974097237 10.997028695419429 37.16640602145344
leaf_count=1071530 34404 13017 711 3129
internal_value=-0.0641885 -0.0509192 -0.0465647 -0.0471349
internal_weight=6343.15 474.215 184.35 173.353
internal_count=1122791 51261 16857 16146
is_linear=0
shrinkage=0.05


Tree=16
num_leaves=5
num_cat=0
split_feature=9 10 10 9
split_gain=33.4447 2.04592 0.309362 0.0662088
threshold=1.0000000180025095e-35 1.5000000000000002 5.5000000000000009 2.5000000000000004
decision_type=2 2 2 2
left_child=-1 -2 3 -3
right_child=1 2 -4 -5
leaf_value=-0.064295592312933317 -0.052770063660424839 -0.047014461136927421 -0.036400454907636097 -0.043330014556070932
leaf_weight=5214.8453518650495 269.73647711332887 129.02246076101437 10.694041358772663 35.551111518405378
leaf_count=1071530 34404 13017 711 3129
internal_value=-0.0631712 -0.0499829 -0.0456658 -0.0462453
internal_weight=5659.85 445.004 175.268 164.574
internal_count=1122791 51261 16857 16146
is_linear=0
shrinkage=0.05


Tree=17
num_leaves=6
num_cat=0
split_feature=9 10 10 10 9
split_gain=30.7069 1.93412 0.299992 0.0602695 3.46674e-05
threshold=1.0000000180025095e-35 1.5000000000000002 5.5000000000000009 2.5000000000000004 1.5000000000000002
decision_type=2 2 2 2 2
left_child=-1 -2 3 -3 -5
right_child=1 2 -4 4 -6
leaf_value=-0.063405175250114076 -0.052041804799360047 -0.046607326254897802 -0.035678798392225347 -0.048025839731291813 -0.042641276280394276
leaf_weight=4623.4017903003842 250.89572138665244 100.78460654476658 10.397904459387062 7.4178512762300661 48.011107721365988
leaf_count=1071530 34404 10841 711 865 4440
internal_value=-0.0622307 -0.0492122 -0.0449224 -0.0455145 -0.0434471
internal_weight=5040.91 417.507 166.611 156.214 55.429
internal_count=1122791 51261 16857 16146 5305
is_linear=0
shrinkage=0.05


Tree=18
num_leaves=6
num_cat=0
split_feature=9 9 10 10 10
split_gain=27.7453 1.84449 0.231018 0.072167 0.0520669
threshold=1.0000000180025095e-35 1.5000000000000002 5.5000000000000009 1.5000000000000002 2.5000000000000004
decision_type=2 2 2 2 2
left_child=-1 3 4 -2 -3
right_child=1 2 -4 -5 -6
leaf_value=-0.062581369491038347 -0.051497506342270717 -0.045504100289259421 -0.035012895229219652 -0.047479430840573045 -0.04209895913434885
leaf_weight=4090.7683650334366 233.26948352251202 71.914428321644664 9.7129867370240373 30.827668636105955 45.90469419490546
leaf_count=1071530 34404 7917 677 3823 4440
internal_value=-0.0613622 -0.0486143 -0.0435414 -0.0510466 -0.0442142
internal_weight=4482.4 391.629 127.532 264.097 117.819
internal_count=1122791 51261 13034 38227 12357
is_linear=0
shrinkage=0.05


Tree=19
num_leaves=6
num_cat=0
split_feature=9 9 10 10 10
split_gain=24.5873 1.77916 0.231063 0.0628803 0.0456496
threshold=1.0000000180025095e-35 1.5000000000000002 5.5000000000000009 1.5000000000000002 2.5000000000000004
decision_type=2 2 2 2 2
left_child=-1 3 4 -2 -3
right_child=1 2 -4 -5 -6
leaf_value=-0.061817875493296176 -0.051151447268884737 -0.04509333343440531 -0.034490619869297821 -0.047135159781436994 -0.041711608264358664
leaf_weight=3612.8217095073778 216.77685735374689 68.143836227245629 9.4435444083064777 29.019406960811466 43.881823232397437
leaf_count=1071530 34404 7917 677 3823 4440
internal_value=-0.0605626 -0.0482004 -0.0431117 -0.0506966 -0.0438071
internal_weight=3980.09 367.265 121.469 245.796 112.026
internal_count=1122791 51261 13034 38227 12357
is_linear=0
shrinkage=0.05


Tree=20
num_leaves=6
num_cat=0
split_feature=9 9 10 10 10
split_gain=21.5794 1.6914 0.328396 0.0435126 0.00840102
threshold=1.0000000180025095e-35 1.5000000000000002 5.5000000000000009 1.5000000000000002 2.5000000000000004
decision_type=2 2 2 2 2
left_child=-1 3 4 -2 -3
right_child=1 2 -4 -5 -6
leaf_value=-0.061109107671402034 -0.050879908138517185 -0.044761834452184894 -0.032975785510277703 -0.04702042347506756 -0.041873753268023138
leaf_weight=3183.5027500593569 201.39563659438863 64.345583247020841 9.4787701950408501 27.625912587624043 41.705313868355006
leaf_count=1070924 34267 7870 681 3870 4461
internal_value=-0.05982 -0.0478944 -0.0428187 -0.0504351 -0.0436666
internal_weight=3528.05 344.551 115.53 229.022 106.051
internal_count=1122073 51149 13012 38137 12331
is_linear=0
shrinkage=0.05


Tree=21
num_leaves=6
num_cat=0
split_feature=9 9 10 10 10
split_gain=18.1081 1.68178 0.333415 0.0381288 0.0071244
threshold=1.0000000180025095e-35 1.5000000000000002 5.5000000000000009 1.5000000000000002 2.5000000000000004
decision_type=2 2 2 2 2
left_child=-1 3 4 -2 -3
right_child=1 2 -4 -5 -6
leaf_value=-0.060450224972292958 -0.05100331536887405 -0.044734186091202041 -0.032709268009917053 -0.047088892276071007 -0.041799220328606362
leaf_weight=2802.4461303458083 187.00087111908942 60.942724263761193 9.2287896289490146 25.978794450405985 39.807591119315475
leaf_count=1070924 34267 7870 681 3870 4461
internal_value=-0.059155 -0.0479007 -0.0427324 -0.0505482 -0.0436171
internal_weight=3125.4 322.959 109.979 212.98 100.75
internal_count=1122073 51149 13012 38137 12331
is_linear=0
shrinkage=0.05


Tree=22
num_leaves=5
num_cat=0
split_feature=10 10 10 10
split_gain=11.5474 2.2342 0.51743 0.0863602
threshold=1.0000000180025095e-35 1.5000000000000002 5.5000000000000009 2.5000000000000004
decision_type=2 2 2 2
left_child=-1 -2 3 -3
right_child=1 2 -4 -5
leaf_value=-0.059830561314397158 -0.053403326175824828 -0.047338547252650021 -0.033079742257144745 -0.043568651750988618
leaf_weight=2398.2151554070879 225.94561191112734 86.307483329903334 9.4302321595605445 46.107930162455887
leaf_count=1043911 56155 14951 754 6302
internal_value=-0.0585599 -0.0502607 -0.0452207 -0.0460597
internal_weight=2766.01 367.791 141.846 132.415
internal_count=1122073 78162 22007 21253
is_linear=0
shrinkage=0.05


Tree=23
num_leaves=6
num_cat=0
split_feature=9 9 10 10 10
split_gain=11.0618 1.75635 0.364726 0.0348757 0.00742144
threshold=1.0000000180025095e-35 1.5000000000000002 5.5000000000000009 1.5000000000000002 2.5000000000000004
decision_type=2 2 2 2 2
left_child=-1 3 4 -2 -3
right_child=1 2 -4 -5 -6
leaf_value=-0.059267218818720026 -0.05214510243897074 -0.045368245844193994 -0.032489385161522527 -0.047955540245915508 -0.042237134650045562
leaf_weight=2163.6537890424952 160.24671744229272 54.400805488228798 8.7379617728292924 22.953535025240853 36.142759811133146
leaf_count=1070924 34267 7870 681 3870 4461
internal_value=-0.0580472 -0.0486846 -0.0431724 -0.0516466 -0.0441664
internal_weight=2446.14 282.482 99.2815 183.2 90.5436
internal_count=1122073 51149 13012 38137 12331
is_linear=0
shrinkage=0.05


Tree=24
num_leaves=5
num_cat=0
split_feature=10 10 10 10
split_gain=7.22674 1.10288 0.547261 0.0728199
threshold=1.5000000000000002 1.0000000180025095e-35 5.5000000000000009 2.5000000000000004
decision_type=2 2 2 2
left_child=1 -1 3 -2
right_child=2 -3 -4 -5
leaf_value=-0.058725824247743467 -0.048159486319398918 -0.054479114150234799 -0.033089267545536788 -0.044292528881674988
leaf_weight=1845.9241950170835 75.700587913626805 189.27076812006999 8.9016265419777465 41.42579178721644
leaf_count=1043911 14951 56155 754 6302
internal_value=-0.0576099 -0.0583336 -0.0458872 -0.0468308
internal_weight=2161.22 2035.19 126.028 117.126
internal_count=1122073 1100066 22007 21253
is_linear=0
shrinkage=0.05


Tree=25
num_leaves=5
num_cat=0
split_feature=9 9 10 10
split_gain=5.59416 0.682443 0.351584 0.00232026
threshold=1.5000000000000002 1.0000000180025095e-35 5.5000000000000009 1.5000000000000002
decision_type=2 2 2 2
left_child=1 -1 -2 -3
right_child=2 3 -4 -5
leaf_value=-0.058236258813977405 -0.045920048753057288 -0.054935203688146597 -0.033738521301824607 -0.050730351954096475
leaf_weight=1663.6877451050095 80.108173360815272 135.28567564394325 7.9046518243849269 19.445256978971884
leaf_count=1071888 12273 34377 674 3904
internal_value=-0.0573161 -0.0579162 -0.0448655 -0.0544399
internal_weight=1906.43 1818.42 88.0128 154.731
internal_count=1123116 1110169 12947 38281
is_linear=0
shrinkage=0.05


Tree=26
num_leaves=5
num_cat=0
split_feature=9 10 10 10
split_gain=4.17772 0.404089 0.00235787 0.000164557
threshold=1.5000000000000002 5.5000000000000009 1.5000000000000002 2.5000000000000004
decision_type=2 2 2 2
left_child=2 3 -1 -2
right_child=1 -3 -4 -5
leaf_value=-0.057707281614089424 -0.048498411939750387 -0.034002120910642912 -0.054091819326421445 -0.044999599725076264
leaf_weight=1571.9326863378519 45.612791958497837 7.668520670849829 26.209221652708948 30.09634547168389
leaf_count=1101097 7882 674 9072 4391
internal_value=-0.0570764 -0.0459999 -0.0576514 -0.0471687
internal_weight=1681.52 83.3777 1598.14 75.7091
internal_count=1123116 12947 1110169 12273
is_linear=0
shrinkage=0.05


Tree=27
num_leaves=5
num_cat=0
split_feature=9 10 9 10
split_gain=2.86298 0.475271 0.00878655 0.00769891
threshold=1.5000000000000002 5.5000000000000009 1.0000000180025095e-35 2.5000000000000004
decision_type=2 2 2 2
left_child=2 3 -1 -2
right_child=1 -3 -4 -5
leaf_value=-0.05733340809111296 -0.050284449130929713 -0.03440673626569505 -0.0590570138707186 -0.04641667734476259
leaf_weight=1272.5111151379533 42.887905528070405 7.4351456481963387 130.77414350234903 28.537291944492608
leaf_count=1071888 7882 674 38281 4391
internal_value=-0.0569692 -0.0474939 -0.0574982 -0.0488062
internal_weight=1482.15 78.8603 1403.29 71.4252
internal_count=1123116 12947 1110169 12273
is_linear=0
shrinkage=0.05


Tree=28
num_leaves=6
num_cat=0
split_feature=9 9 10 10 10
split_gain=1.69281 1.21115 0.57272 0.0401236 0.0191405
threshold=1.5000000000000002 1.0000000180025095e-35 5.5000000000000009 1.5000000000000002 2.5000000000000004
decision_type=2 2 2 2 2
left_child=1 -1 4 -3 -2
right_child=2 3 -4 -5 -6
leaf_value=-0.056923929868992008 -0.052585708305296332 -0.06322672989848159 -0.034965727792717879 -0.057206060549480957 -0.048236242895587519
leaf_weight=1111.2459719260223 40.228332766098902 104.19321524351835 7.2039005085825911 15.451876738108693 27.007752278121188
leaf_count=1071888 7882 34377 674 3904 4391
internal_value=-0.0570154 -0.0574707 -0.0494185 -0.0624976 -0.0509128
internal_weight=1305.33 1230.89 74.44 119.645 67.2361
internal_count=1123116 1110169 12947 38281 12273
is_linear=0
shrinkage=0.05


Tree=29
num_leaves=5
num_cat=0
split_feature=10 10 10 10
split_gain=5.91698 2.69931 0.831945 0.0660332
threshold=1.0000000180025095e-35 1.5000000000000002 5.5000000000000009 2.5000000000000004
decision_type=2 2 2 2
left_child=-1 -2 3 -3
right_child=1 2 -4 -5
leaf_value=-0.051015752292181499 -0.065478838361398256 -0.056848036057877506 -0.03636865377994588 -0.051904130234422197
leaf_weight=1044.6720496192575 116.71147388475947 52.558878586278297 7.2337561087915665 30.036015570280142
leaf_count=1044672 56425 15002 753 6264
internal_value=-0.0525632 -0.0603616 -0.0536476 -0.0551151
internal_weight=1251.21 206.54 89.8287 82.5949
internal_count=1123116 78444 22019 21266
is_linear=0
shrinkage=0.05


Tree=30
num_leaves=7
num_cat=0
split_feature=9 9 10 10 10 10
split_gain=25.1056 4.81694 0.8338 0.151649 0.0657731 0.0100873
threshold=1.0000000180025095e-35 1.5000000000000002 5.5000000000000009 1.5000000000000002 2.5000000000000004 1.5000000000000002
decision_type=2 2 2 2 2 2
left_child=5 3 4 -2 -3 -1
right_child=1 2 -4 -5 -6 -7
leaf_value=-0.044858939952549012 -0.073948182153294351 -0.059373946715443361 -0.03729941975509337 -0.065216182035045187 -0.053562242711563304 -0.051418787360330891
leaf_weight=1066.2750506453449 86.27647241554223 35.199892864562571 6.6956758229061952 13.727161989896556 24.506090383278206 5.195795511477626
leaf_count=1066275 34341 7911 693 3816 4456 5192
internal_value=-0.0477111 -0.0658025 -0.0551464 -0.0728159 -0.0570821 -0.0448955
internal_weight=1237.88 166.405 66.4017 100.004 59.706 1071.47
internal_count=1122684 51217 13060 38157 12367 1071467
is_linear=0
shrinkage=0.05


Tree=31
num_leaves=6
num_cat=0
split_feature=9 9 10 10 10
split_gain=54.2578 6.68451 1.10793 0.251369 0.109048
threshold=1.0000000180025095e-35 1.5000000000000002 5.5000000000000009 1.5000000000000002 2.5000000000000004
decision_type=2 2 2 2 2
left_child=-1 3 4 -2 -3
right_child=1 2 -4 -5 -6
leaf_value=-0.040026157028249854 -0.08220679971059805 -0.06421024743512431 -0.038400965998941279 -0.071365119071904001 -0.057284328810311563
leaf_weight=1071.4675414287485 77.259600502671674 32.642803854541853 6.458155582426115 12.574727435596285 22.995068995049223
leaf_count=1071467 34341 7911 693 3816 4456
internal_value=-0.0439984 -0.0719676 -0.0591235 -0.0807703 -0.0614557
internal_weight=1223.4 151.93 62.096 89.8343 55.6379
internal_count=1122684 51217 13060 38157 12367
is_linear=0
shrinkage=0.05


Tree=32
num_leaves=8
num_cat=1
split_feature=8 0 17 3 17 17 17
split_gain=0.619926 0.0841705 0.0479507 0.0261787 0.0158461 0.0456074 0.00742423
threshold=1.5000000000000002 10.500000000000002 992.50000000000011 0 812.50000000000011 1640.5000000000002 20.500000000000004
decision_type=8 2 2 1 2 2 2
left_child=2 4 -1 -3 6 -6 -2
right_child=1 3 -4 -5 5 -7 -8
leaf_value=-0.043364114522821226 -0.03955654318294078 -0.042809054768163421 -0.047573051987720716 -0.040582073112121309 -0.038788922002235202 -0.042198001909172542 -0.040850400441739848
leaf_weight=34.772214224096388 132.17659911257215 120.40094440081157 39.39587537269108 81.436257513822056 133.74724235874601 27.90876343625132 642.91264101676643
leaf_count=30766 125381 108029 31649 75905 128647 25737 596570
internal_value=-0.0410042 -0.0406969 -0.0456608 -0.0419311 -0.0404266 -0.0394032 -0.0406349
internal_weight=1212.75 1138.58 74.1681 201.837 936.745 161.656 775.089
internal_count=1122684 1060269 62415 183934 876335 154384 721951
cat_boundaries=0 1
cat_threshold=4
is_linear=0
shrinkage=0.05


Tree=33
num_leaves=5
num_cat=0
split_feature=9 9 10 10
split_gain=116.554 6.13466 1.7534 0.197738
threshold=1.0000000180025095e-35 1.5000000000000002 5.5000000000000009 2.5000000000000004
decision_type=2 2 2 2
left_child=-1 -2 3 -3
right_child=1 2 -4 -5
leaf_value=-0.032478571425868775 -0.090326093010034914 -0.075127481849498648 -0.041495229052462286 -0.065967785474730548
leaf_weight=1071.4670508919517 81.663220698246732 28.555997023591772 5.972883040783926 20.439767008996569
leaf_count=1071467 38157 7911 693 4456
internal_value=-0.0380303 -0.0815111 -0.068275 -0.0714484
internal_weight=1208.1 136.632 54.9686 48.9958
internal_count=1122684 51217 13060 12367
is_linear=0
shrinkage=0.05


Tree=34
num_leaves=6
num_cat=0
split_feature=9 10 10 9 9
split_gain=159.28 4.94716 1.61781 0.751938 0.0657693
threshold=1.0000000180025095e-35 2.5000000000000004 5.5000000000000009 1.5000000000000002 1.5000000000000002
decision_type=2 2 2 2 2
left_child=-1 3 4 -2 -3
right_child=1 2 -4 -5 -6
leaf_value=-0.029845392138728829 -0.096781229575938016 -0.091316027245250384 -0.044515185752162824 -0.084858032978986392 -0.073152368194532524
leaf_weight=1071.4670508919517 75.719386414857581 2.4187883519334781 5.8705360878957427 25.986840849625878 18.904368750168942
leaf_count=1071467 37233 891 726 7911 4456
internal_value=-0.0361684 -0.0886634 -0.0691002 -0.0938211 -0.0756294
internal_weight=1200.37 128.9 27.1937 101.706 21.3232
internal_count=1122684 51217 6073 45144 5347
is_linear=0
shrinkage=0.05


Tree=35
num_leaves=10
num_cat=0
split_feature=9 1 9 10 1 10 1 10 1
split_gain=208.421 11.4467 3.83443 3.54893 1.39502 0.682196 0.399004 0.244759 0.0407624
threshold=1.0000000180025095e-35 9.5000000000000018 1.5000000000000002 5.5000000000000009 4.5000000000000009 5.5000000000000009 11.500000000000002 2.5000000000000004 7.5000000000000009
decision_type=2 2 2 2 2 2 2 2 2
left_child=-1 3 6 4 -2 -4 -3 8 -6
right_child=1 2 5 -5 7 -7 -8 -9 -10
leaf_value=-0.027605243121527359 -0.083155710746987466 -0.12523010081727867 -0.098594985433608381 -0.046305388938095451 -0.095101067611721879 -0.038909473410056461 -0.14933206710477542 -0.084280561294556952 -0.10615032941389252
leaf_weight=1071.5550508961314 42.812232607160695 10.13962750381325 7.5789468080038187 5.1432461400981984 23.341545958770439 0.69968141359277058 9.5197433449793589 7.9519635863834983 14.337769908946937
leaf_count=1071555 23993 3619 1113 660 12046 50 1929 2017 5847
internal_value=-0.0346486 -0.0966807 -0.125083 -0.0880776 -0.0904517 -0.0940752 -0.137598 -0.0971001 -0.0995754
internal_weight=1193.08 121.525 27.938 93.5868 88.4435 8.27863 19.6594 45.6313 37.6793
internal_count=1122829 51274 6711 44563 43903 1163 5548 19910 17893
is_linear=0
shrinkage=0.05


Tree=36
num_leaves=4
num_cat=0
split_feature=9 10 9
split_gain=277.664 7.40458 1.0244
threshold=1.0000000180025095e-35 5.5000000000000009 1.5000000000000002
decision_type=2 2 2
left_child=-1 2 -2
right_child=1 -3 -4
leaf_value=-0.025675902591196616 -0.11445561892459265 -0.050490745956195321 -0.10214682256462695
leaf_weight=1071.5550508961314 71.293599870055914 5.6953307957155621 38.183696069288999
leaf_count=1071555 38217 726 12331
internal_value=-0.0336108 -0.10735 -0.11026
internal_weight=1186.73 115.173 109.477
internal_count=1122829 51274 50548
is_linear=0
shrinkage=0.05


Tree=37
num_leaves=10
num_cat=0
split_feature=9 1 9 1 1 10 10 10 1
split_gain=360.839 34.1664 6.6795 4.84084 2.93778 2.50779 2.11108 1.52141 0.500618
threshold=1.0000000180025095e-35 9.5000000000000018 1.5000000000000002 6.5000000000000009 11.500000000000002 5.5000000000000009 5.5000000000000009 5.5000000000000009 4.5000000000000009
decision_type=2 2 2 2 2 2 2 2 2
left_child=-1 3 4 5 -3 8 -5 -4 -2
right_child=1 2 7 6 -6 -7 -8 -9 -10
leaf_value=-0.023997002854591904 -0.09435082899799023 -0.1650514213328701 -0.13548514838187503 -0.12638676149431977 -0.21583938182940832 -0.052956590567710293 -0.049511503335375739 -0.046020513621521549 -0.10794855675417661
leaf_weight=1071.5550508961314 39.569871166720986 8.8924085698090547 6.5734243616461745 24.109357874956917 7.9241518696071571 3.5668015220435327 1.106202347553334 0.65411825501359988 17.150290330639109
leaf_count=1071555 23993 3619 1113 10522 1929 521 139 50 9388
internal_value=-0.0328396 -0.119235 -0.172091 -0.104187 -0.190118 -0.0960341 -0.123223 -0.128127 -0.0986451
internal_weight=1181.1 109.547 24.0441 85.5025 16.8166 60.287 25.2156 7.22754 56.7202
internal_count=1122829 51274 6711 44563 5548 33902 10661 1163 33381
is_linear=0
shrinkage=0.05


Tree=38
num_leaves=10
num_cat=0
split_feature=9 1 9 1 1 10 10 10 1
split_gain=482.191 67.7076 11.1859 9.14523 8.86121 2.8567 2.70198 2.53148 0.965636
threshold=1.0000000180025095e-35 9.5000000000000018 1.5000000000000002 11.500000000000002 6.5000000000000009 5.5000000000000009 5.5000000000000009 5.5000000000000009 4.5000000000000009
decision_type=2 2 2 2 2 2 2 2 2
left_child=-1 4 3 -3 6 -6 8 -4 -2
right_child=1 2 7 -5 5 -7 -8 -9 -10
leaf_value=-0.022522763706482055 -0.10085129974742742 -0.19799828939001779 -0.16572901211224692 -0.28521977746070065 -0.14464022039120714 -0.053671149193370238 -0.057402459804567055 -0.050185555988970322 -0.11835483431907456
leaf_weight=1071.5550508961314 38.325383981689811 8.1296135722659546 5.9800066817551842 6.8008244392694897 22.66271642793436 1.0576911757234473 3.3790133224101728 0.63127146766055364 16.437964714830741
leaf_count=1071555 23993 3619 1113 1929 10522 139 521 50 9388
internal_value=-0.0324796 -0.135539 -0.214495 -0.239361 -0.114526 -0.140826 -0.103572 -0.155609 -0.106311
internal_weight=1174.96 103.404 21.5417 14.9304 81.8628 23.7204 58.1424 6.61128 54.7633
internal_count=1122829 51274 6711 5548 44563 10661 33902 1163 33381
is_linear=0
shrinkage=0.05


Tree=39
num_leaves=255
num_cat=11
split_feature=8 1 17 0 3 17 17 0 0 17 17 6 1 17 11 11 1 15 17 11 17 17 17 3 11 0 8 11 17 1 11 11 1 17 15 17 1 15 11 17 17 11 17 6 8 1 11 11 0 11 17 11 11 3 1 1 1 11 11 17 8 17 17 11 0 17 11 17 3 11 17 1 17 11 11 11 11 11 17 3 17 6 11 17 17 0 8 11 17 11 17 17 11 0 6 11 11 11 11 11 17 17 11 0 17 8 17 11 11 8 17 11 11 11 17 0 11 11 17 11 11 17 1 17 8 11 0 11 11 11 8 11 11 17 17 17 17 17 17 11 11 11 11 11 17 8 8 17 11 11 17 8 11 0 11 11 11 17 1 1 8 11 11 8 8 11 11 11 11 11 17 17 11 11 8 17 17 11 11 11 11 17 11 8 8 17 17 1 15 11 11 1 11 11 11 0 8 17 11 11 17 11 15 17 17 11 11 11 0 11 1 11 11 17 11 17 8 8 17 17 17 11 11 17 11 11 8 17 11 11 11 17 11 11 0 11 11 1 3 17 11 17 17 8 6 0 11 11 11 11 0 11 0 17
split_gain=3.57502 1.18487 1.03432 0.573062 0.639717 0.430193 0.418375 0.326415 0.325794 0.275712 0.505445 0.482096 0.438717 0.2815 0.266652 0.238663 0.236117 0.3297 0.232057 0.196489 0.184723 0.241117 0.183806 0.162693 0.154188 0.146865 0.137162 0.134296 0.131326 0.121885 0.121484 0.241486 0.167694 0.181217 0.120399 0.11952 0.116756 0.112223 0.101757 0.0992656 0.0992579 0.145149 0.0986376 0.0970283 0.0929309 0.0899063 0.0891516 0.0877097 0.0816628 0.0803899 0.0802459 0.170616 0.105536 0.127679 0.161129 0.143764 0.155276 0.122122 0.0786028 0.0845562 0.0769266 0.0759059 0.0753559 0.157548 0.0921691 0.0750882 0.253928 0.105419 0.273733 0.0753878 0.0749108 0.0749 0.0729697 0.0699586 0.067026 0.161066 0.0788562 0.064916 0.0608894 0.0599345 0.0597177 0.0592232 0.0848134 0.0912981 0.135807 0.0941807 0.0848499 0.059231 0.0791056 0.125277 0.063769 0.058521 0.0574197 0.0572511 0.055863 0.0540719 0.0534475 0.199559 0.114102 0.0849474 0.0519272 0.102175 0.0573949 0.0495124 0.0486913 0.0947433 0.0648451 0.0706696 0.211673 0.0605303 0.0601541 0.0933121 0.0700008 0.0515226 0.0481641 0.0460412 0.0568797 0.0448797 0.0438363 0.0436841 0.108837 0.131179 0.120656 0.0768239 0.042539 0.0414127 0.0413441 0.0408806 0.0633956 0.0468031 0.0408011 0.0389812 0.130741 0.109734 0.0645165 0.0707451 0.0500801 0.0388896 0.116921 0.137344 0.106092 0.0636068 0.0509997 0.24203 0.0494173 0.0388415 0.0392388 0.0367241 0.091712 0.0605882 0.0550889 0.0361163 0.0359805 0.0539045 0.0358602 0.0356224 0.149544 0.0818693 0.0692224 0.0450703 0.0355026 0.0354649 0.0609993 0.0353542 0.034893 0.0345434 0.105002 0.0339814 0.033272 0.0378961 0.032972 0.032381 0.0321982 0.0320405 0.0315937 0.0313734 0.0307911 0.0307506 0.03093 0.0301192 0.0297804 0.0382577 0.0685228 0.0379091 0.0296176 0.0292951 0.0340737 0.0287515 0.0282386 0.027248 0.117247 0.0645231 0.0381955 0.0275914 0.061505 0.0270868 0.0270645 0.0750132 0.0322085 0.0320771 0.0266953 0.0263612 0.0259769 0.123197 0.0255903 0.0253019 0.0455436 0.0250968 0.0415417 0.0284477 0.0248619 0.0246116 0.0370843 0.0538836 0.0405692 0.0317918 0.0243471 0.0385968 0.0239308 0.0470213 0.0371965 0.0551718 0.03886 0.0235136 0.0232464 0.112265 0.0225286 0.0219661 0.0217326 0.021704 0.0292171 0.0215895 0.0214838 0.0633257 0.0214593 0.0214064 0.0212303 0.0212162 0.0691322 0.0294904 0.0210012 0.0644271 0.0304158 0.0206737 0.0198935 0.0194437 0.0272209 0.028029 0.0474562 0.160424 0.050972 0.0193884 0.0192463 0.0190483
threshold=1.5000000000000002 7.5000000000000009 1406.5000000000002 10.500000000000002 0 870.50000000000011 2070.5000000000005 10.500000000000002 11.500000000000002 1640.5000000000002 756.50000000000011 1 11.500000000000002 20.500000000000004 1.58871467985 25.315532033500002 11.500000000000002 1.0000000180025095e-35 702.50000000000011 6.5329950796000009 72.500000000000014 1056.5000000000002 272.50000000000006 2 11.788062609000002 12.500000000000002 5.5000000000000009 6.0822406683500008 600.50000000000011 8.5000000000000018 1.3116167792000002 1.6441225047000001 9.5000000000000018 2352.5000000000005 1.0000000180025095e-35 2256.5000000000005 9.5000000000000018 3.5000000000000004 2.1696782204500002 380.50000000000006 56.500000000000007 5.0000363907000009 2070.5000000000005 3 2.5000000000000004 12.500000000000002 4.6420567675500006 2.7374684458000007 9.5000000000000018 4.0696144705500013 1260.5000000000002 1.7519817181000004 1.2523829863000002 4 3.5000000000000004 9.5000000000000018 8.5000000000000018 1.3868416593000001 2.7904934170500004 1122.5000000000002 5.5000000000000009 1482.5000000000002 1122.5000000000002 2.7422228351500002 9.5000000000000018 56.500000000000007 4.7921202871500013 240.50000000000003 5 4.8739290172500001 1482.5000000000002 10.500000000000002 2756.5000000000005 8.136471279100002 7.7155192557500003 20.999174871000005 6.553548364900001 1.6441225047000001 1406.5000000000002 6 30.500000000000004 7 2.3169726926500007 240.50000000000003 506.50000000000006 7.5000000000000009 4.5000000000000009 1.7194287416000003 110.50000000000001 1.2862406091500003 380.50000000000006 1.0000000180025095e-35 74.501375815000017 10.500000000000002 8 1.7388466256000001 1.3116167792000002 2.7374684458000007 2.7610918979000005 3.5959894008500006 420.50000000000006 156.50000000000003 6.1098488362500012 6.5000000000000009 72.500000000000014 4.5000000000000009 20.500000000000004 3.8408301738500001 4.6420567675500006 6.5000000000000009 2.5000000000000004 5.6298717062000003 17.944281628000002 4.6190346668500011 756.50000000000011 11.500000000000002 6.2872835782000012 17.944281628000002 30.500000000000004 11.788062609000002 7.7155192557500003 272.50000000000006 7.5000000000000009 552.50000000000011 4.5000000000000009 3.1826164615500003 7.5000000000000009 6.1560896127000015 6.0038843432000002 24.575665989500003 3.5000000000000004 3.2373969942500005 4.5785451195500011 272.50000000000006 6.5000000000000009 72.500000000000014 650.50000000000011 306.50000000000006 650.50000000000011 28.425116039500004 16.683665804500006 47.223023753000007 2.9922364129000005 2.2298079223500005 90.500000000000014 3.5000000000000004 6.5000000000000009 272.50000000000006 6.5329950796000009 1.58871467985 240.50000000000003 5.5000000000000009 0.17989556680000005 5.5000000000000009 2.0081448880500008 0.39965396425000005 1.0868782898500002 600.50000000000011 8.5000000000000018 11.500000000000002 2.5000000000000004 7.0249481650000005 8.5609544068000023 3.5000000000000004 4.5000000000000009 3.0396492150000003 7.2441930369000014 0.39965396425000005 7.5916977831000008 21.739611316000005 506.50000000000006 2.5000000000000004 3.2652369752000006 3.6645414692000005 7.5000000000000009 992.50000000000011 1190.5000000000002 2.3169726926500007 24.575665989500003 2.6125613029500006 1.4876798837000003 812.50000000000011 4.5785451195500011 5.5000000000000009 5.5000000000000009 72.500000000000014 650.50000000000011 11.500000000000002 1.0000000180025095e-35 2.9055649309500002 3.3604712189000003 10.500000000000002 4.1020283916000002 3.2359200840000004 2.9922364129000005 11.500000000000002 7.5000000000000009 1260.5000000000002 7.0864681696500007 6.553548364900001 2652.5000000000005 0.20565257145000002 3.5000000000000004 1406.5000000000002 1482.5000000000002 2.9055649309500002 2.1100339960500007 2.3882949543500005 10.500000000000002 2.1100339960500007 11.500000000000002 3.2359200840000004 3.5063686857000005 1122.5000000000002 6.0822406683500008 552.50000000000011 7.5000000000000009 5.5000000000000009 306.50000000000006 342.50000000000006 272.50000000000006 12.217599674500002 1.8225438598500003 2256.5000000000005 1.4382927354500004 1.58871467985 5.5000000000000009 2162.5000000000005 19.321628358000002 2.5306816275000004 23.136942393000002 72.500000000000014 1.58871467985 2.0081448880500008 2.5000000000000004 5.9795072238000007 5.4016133294500008 6.5000000000000009 9 812.50000000000011 5.6298717062000003 306.50000000000006 380.50000000000006 2.5000000000000004 10 1.5000000000000002 2.3882949543500005 2.6135356605500006 3.3306102492000007 3.7248353619000008 9.5000000000000018 1.9621952039000001 9.5000000000000018 600.50000000000011
decision_type=8 2 2 2 1 2 2 2 2 2 2 1 2 2 2 2 2 2 2 2 2 2 2 1 2 2 10 2 2 2 2 2 2 2 2 2 2 2 2 2 2 2 2 1 8 2 2 2 2 2 2 2 2 1 2 2 2 2 2 2 10 2 2 2 2 2 2 2 1 2 2 2 2 2 2 2 2 2 2 1 2 1 2 2 2 2 10 2 2 2 2 2 2 2 1 2 2 2 2 2 2 2 2 2 2 8 2 2 2 10 2 2 2 2 2 2 2 2 2 2 2 2 2 2 10 2 2 2 2 2 10 2 2 2 2 2 2 2 2 2 2 2 2 2 2 10 10 2 2 2 2 8 2 2 2 2 2 2 2 2 10 2 2 10 10 2 2 2 2 2 2 2 2 2 8 2 2 2 2 2 2 2 2 8 8 2 2 2 2 2 2 2 2 2 2 2 10 2 2 2 2 2 2 2 2 2 2 2 2 2 2 2 2 2 2 2 10 8 2 2 2 2 2 2 2 2 8 2 2 2 2 2 2 2 2 2 2 2 1 2 2 2 2 10 1 2 2 2 2 2 2 2 2 2
left_child=2 5 18 9 8 7 43 40 16 10 11 22 79 47 -14 187 20 27 92 50 71 -22 26 25 30 104 -3 28 91 -21 45 70 35 34 38 42 95 -17 61 115 41 60 195 48 100 200 77 210 73 -40 52 167 237 54 252 56 62 176 -59 -60 80 -34 63 -56 103 66 96 205 69 -69 -32 171 94 -7 76 160 154 -8 175 -11 126 82 86 85 236 -84 -42 88 89 152 -90 -18 119 223 -37 -15 -38 232 -99 -100 101 -25 -103 -64 106 177 110 -108 109 164 172 113 124 174 -57 147 -117 -118 -46 120 155 -122 -123 -124 -113 207 201 128 180 -129 -128 -27 133 134 -133 -136 -134 144 139 140 -139 -141 143 -140 -83 -97 218 150 149 -149 -6 -39 -88 -154 -24 -1 157 158 -157 231 -76 -71 -163 -87 -109 -81 216 -52 235 -170 -162 -5 -9 227 -112 -45 -55 251 -179 -132 -120 182 183 -182 185 -130 -187 -10 226 -12 191 -191 -192 194 -193 244 198 -198 199 -50 -4 -2 203 -199 -29 206 -67 209 -209 -116 -13 -41 213 215 -214 -213 217 -167 220 -220 -147 222 -222 -63 -70 -226 -177 -16 -68 -221 -231 -160 -98 -234 -169 -165 -85 238 239 -20 241 -238 -243 -49 -33 -158 -247 -248 -249 250 -250 -106 -54 -89
right_child=1 3 24 4 39 6 46 23 15 12 189 13 14 36 173 37 17 -19 19 29 21 -23 74 44 -26 131 -28 204 -30 -31 31 32 33 -35 -36 72 65 151 49 211 81 -43 -44 78 118 -47 -48 243 196 -51 51 -53 53 57 55 114 -58 58 59 -61 -62 93 64 -65 -66 67 228 68 224 161 -72 -73 -74 -75 75 -77 -78 -79 -80 165 -82 137 83 84 -86 163 87 253 90 -91 -92 -93 -94 -95 -96 145 97 98 99 -101 -102 102 -104 -105 105 -107 107 108 -110 -111 111 112 -114 -115 125 116 117 -119 127 -121 121 122 123 -125 -126 -127 130 129 184 -131 179 132 136 -135 135 -137 -138 138 142 141 -142 -143 -144 -145 -146 146 -148 148 -150 -151 -152 -153 153 -155 -156 156 245 -159 159 -161 170 162 -164 168 -166 166 -168 234 169 -171 -172 -173 -174 -175 -176 188 -178 178 -180 -181 181 -183 -184 -185 -186 186 -188 -189 -190 190 192 193 -194 -195 -196 -197 197 202 -200 -201 -202 -203 -204 -205 -206 -207 -208 208 -210 -211 -212 212 214 -215 -216 -217 -218 -219 219 229 221 -223 -224 -225 225 -227 -228 -229 -230 230 -232 -233 233 -235 -236 -237 240 -239 -240 -241 -242 242 -244 -245 -246 246 247 248 249 -251 -252 -253 -254 -255
leaf_value=-0.017312347303700869 -0.03768887047661984 -0.03152835335733653 -0.069595030935576174 -0.046643744898634681 -0.034635662116345216 -0.024647569843275163 -0.0048178615579546362 -0.034161976359522291 -0.031218112905738851 -0.025632482946674435 -0.02690371767027815 -0.022477033574503508 -0.023727593204276937 -0.019040705415566014 -0.066265224212291446 -0.013584081913627755 -0.013550448890023301 -0.024228891227534952 -0.0099596426062175131 -0.062784014171160946 -0.044694731910677479 -0.025368459743127531 -0.03055696313313197 -0.026288201567120487 -0.015622216147231506 -0.022946658042245171 -0.026949010244041838 -0.069208874552552341 -0.034025515581345679 -0.013435106404579795 -0.053002181155667252 -0.0098335616697860471 -0.012985267417684479 -0.014175377559579564 -0.011322844655842601 -0.0071954154069872036 -0.063607640841106677 -0.069822291198531325 -0.086438543332428966 -0.025101851141464598 -0.025064919660083729 -0.031595079321031359 -0.027285664895475206 -0.024814080264856597 -0.024499761861986994 -0.010584918234927196 -0.007455664142362455 -0.017871485791057389 -0.028843709455645256 -0.03056139829691152 -0.01170023101298865 -0.024735793886089971 -0.036269405870049169 -0.06967700308483149 -0.051606710180051751 -0.016141869505247819 -0.07854679871277645 -0.030846136556550857 -0.049442949409306172 -0.023399127483672191 -0.023269497721430905 -0.061176624212195087 -0.0065400766841930587 -0.023845735547110836 -0.010331864623524999 -0.034029235134998455 -0.019758265735639775 -0.043650350388719013 -0.025291839231562099 -0.028405432287541856 -0.0221093421659578 -0.022316532040732348 -0.0088056429542770522 -0.030902232394108938 -0.011213669408657676 -0.026901760607615351 -0.019437752367974705 -0.090359566945223388 -0.023322475785605357 -0.030550103148392689 -0.025187599470742734 -0.032019187949573223 -0.02408035549965416 -0.022468115297223919 -0.04265221280416006 -0.025739266149515889 -0.01133384168283009 -0.039689764629964763 -0.026002034915829888 -0.024212167026908257 -0.04256954074397945 -0.052034599869157622 -0.074001490896462768 -0.010518109305294114 -0.07454367804790199 -0.027332100123203164 -0.017526057413873388 -0.082218436258114674 -0.038313198576460324 -0.065200450288394204 -0.015236161415534265 -0.067459148298341556 -0.0097689200205070287 -0.073106522479121111 -0.039906623887962518 -0.037251742120841737 -0.02310352886554572 -0.0082171531915392268 -0.025681479291787924 -0.011892684398033071 -0.039529527360730982 -0.0093687651418969502 -0.012698120920679691 -0.018048732055742114 -0.040349907854125483 -0.020109145122060079 -0.047220098925009113 -0.015682255808058102 -0.023754911149982016 -0.018017980713475764 -0.012334302371691551 -0.0085752580217498819 -0.10307700525778124 -0.0049622063605451036 -0.060442337998783728 -0.014412126424191077 -0.035885920500580377 -0.02002926550729919 -0.010382511857383937 -0.035130445211123532 -0.027287388321462797 -0.011555460349449579 -0.022939069247491464 -0.017126413331709035 -0.079139645411318113 -0.034739943064333555 -0.045320137773682746 -0.032749820040020826 -0.025379375180423686 -0.070476109045021676 -0.019830389920290212 -0.0096351215631380084 -0.025805375109254056 -0.039275075863815359 -0.028746777805640333 -0.036870468260972643 -0.029358461558232275 -0.014754890588763912 -0.016915505102869093 -0.049310167398052406 -0.019280613133020416 -0.0067383383797386346 -0.079011223731497993 -0.041197183963254218 -0.036398954002852466 -0.0096120749150516924 -0.016346805357780877 -0.012730946559015488 -0.004097962955591907 -0.007116756367797847 -0.05455523449807631 -0.062853127655105243 -0.033505585634613151 -0.033968024172098064 -0.062983347006037499 -0.041434986423648845 -0.024048683789622615 -0.078885493525268358 -0.02278261606553008 -0.036071698116269334 -0.01037663452178289 -0.032474465733624121 -0.019077723784402079 -0.042408284131591978 -0.014834081886417789 -0.055487028655391291 -0.0054472230433832338 -0.058444389698136381 -0.0085508047089740465 -0.031419196437047846 -0.034693248146999575 -0.047454312157091727 -0.024759295503219481 -0.023093765451603347 -0.011662402877792768 -0.058003710559377142 -0.009587002045023562 -0.022474058007033015 -0.010855069043510863 -0.018793792710833746 -0.020361265823896513 -0.036962116726839703 -0.028720273120839176 -0.045510918341212112 -0.019254444903041439 -0.010301809741787023 -0.023215013571661395 -0.058553379086280256 -0.021849305105860022 -0.047252595992336693 -0.004685929547606384 -0.022762110259207161 -0.08078136305895664 -0.017359133895916264 -0.005229192063875978 -0.0368482994878001 -0.026055204092340734 -0.063491625236119675 -0.0089401641109265791 -0.015138952397443879 -0.030509879217433214 -0.0077027243540282999 -0.019748374135625756 -0.012993306926803417 -0.032572138808314118 -0.065479556605662431 -0.0080762771084900431 -0.077336634409154476 -0.018949921393663898 -0.0295833046510551 -0.0098869215167859091 -0.012738872294073892 -0.059017714112790415 -0.0067337470129715266 -0.080839242903526842 -0.033181420275347755 -0.0074936736502821434 -0.005265202517349239 -0.044296083115528455 -0.038823258136920114 -0.02440519009528519 -0.073166674851624591 -0.046189897958541316 -0.026322155052104397 -0.040799601414090794 -0.041245080453970497 -0.016152018830170169 -0.022465412452517021 -0.020018550752918519 -0.05516725399154343 -0.025942362814216691 -0.05748824457985633 -0.0090736920723659079 -0.033744184493340046 -0.049131942582086266 -0.030289788726872654 -0.046609861422259674 -0.025760364953613203 -0.07300912383172424 -0.032924920675736789 -0.0076786489818320555 -0.015140442567807536 -0.016211805741492651 -0.013799842346176894
leaf_weight=0.61700002930594067 0.51172638905700196 140.77310896269046 2.6958184347022396 1.152444052859211 15.368649625219412 61.612347312853672 0.036000001709907248 1.4126113478559985 5.4523976800264755 3.1532859778963029 35.241247247904539 6.2924872192088532 0.80352213094010849 1.0090000479249273 2.406459561898374 0.18500000878702927 0.18400000873952649 1.5189153549727059 0.093000004417262971 1.9933738840045401 18.111364299664277 2.2725508717121548 8.7204628444742465 0.59442653879523255 0.35800001700408657 3.5538919569225964 24.4309630835196 1.5957192751811824 2.2166044854093334 0.20000000949949015 0.25553126493468781 0.089000004227273166 0.18200000864453647 0.22500001068692643 0.13300000631716091 0.055000002612359822 0.99532902927603384 0.5827534319832921 1.5560235432349143 8.2199541626032424 2.8887660055188489 36.879204253549688 1.0652685965178523 0.50203846790827755 5.886269201757389 0.10800000512972463 0.064759443397633731 0.5770000274060284 14.578470511827621 0.21788164728786785 0.13585973239969362 3.0534677403047681 1.972335021942855 0.38695198588538993 2.2680474191438393 0.35300001676660064 1.0991735882125793 5.2584884507814404 2.1009440466295932 0.70064485957846034 13.165769263403488 1.1844428016338495 0.050000002374872343 1.0089560076594351 0.10700000508222718 10.617065161000939 1.5759758325293658 23.035242917831059 2.4519567094976074 2.9577715351479119 1.3322328220820052 2.1099531453801319 0.079000003752298542 6.6751285361824548 0.11400000541470978 1.4382223440334199 1.301000061794183 0.27574739546980709 0.97939917433541257 2.8218941474333388 18.938900045002811 24.149692179169506 4.1660338086076107 8.0193836748367158 1.3796246118145052 2.8484237764496418 0.11900000565219881 12.029079083702523 6.3716482976451516 1.0777035928331313 0.91227481176611025 8.9518462786218134 0.070842111599630608 0.11200000531971444 0.99980594462249317 3.993811209453269 0.50600002403371069 0.42479818151332471 2.1966073256917302 0.68569978175219137 0.25600001215934765 0.58929224370513111 0.086000004084780812 0.96291262179147452 0.53025760548189316 28.11904121784028 3.9976214846828944 0.064000003039836884 2.6249309609411284 0.13200000626966357 3.1952195542398849 0.084000003989785799 0.16100000764708955 0.67200003191828717 1.653427310986445 2.1650001028319816 0.4928015632322057 0.31400001491419971 2.8000863039633357 0.7250000344356512 0.14700000698212434 0.074000003514811397 0.15855492337141186 0.033000001567415893 1.1723161713453008 0.2420000114943831 4.6902775899507096 3.0198850496672089 0.097000004607251777 0.91583091230131675 21.337412603897974 0.13400000636465825 3.4603419310878967 0.38181580475065857 0.34987623849883676 0.48312785383313894 0.32715435954742123 62.163320400635712 9.3334894995205122 0.32660359761211921 2.1963670514523974 0.087000004132278264 16.454865532228723 5.7888465281575909 102.13511496572755 14.72213145904243 5.9034708850085726 0.24600001168437291 0.45600002165883768 2.317741364124231 1.0440000495873398 0.047000002232380211 0.2581740015884858 1.1442326188553125 20.248798877932131 0.094000004464762976 0.4550000216113429 0.15800000750459731 0.024000001139938831 0.053000002517364919 2.1799936952302232 0.3526727075222883 1.7591543835587797 16.704101937008094 0.73960356577299569 1.0432532890699806 0.78339053946547199 0.13327538536395866 2.7162444099085397 1.3808336277725173 0.097000004607252666 5.5239470293745399 1.1770000559045 1.0573945702053604 0.30200001434422974 0.88673091609962251 0.03800000180490315 1.4502625431632621 0.07000000332482148 16.585110690910369 11.149755630991411 0.6745596113614728 4.9029841633746392 1.665426589665018 0.12600000598467886 0.64225844654720277 0.085000004037283361 2.9880691546713933 0.10138553229626268 0.8020000380929585 2.693000127910639 3.4503635200671852 21.606518471380696 2.0429055354325101 1.0010000475449485 0.10700000508222807 0.91040338517632224 0.329150156583637 3.0994983738055444 0.41174087917897928 0.031000001472420879 6.3906244011595845 0.07494485832285136 0.53700002550613135 0.033000001567415782 12.123800939414648 4.8026847467990583 0.56563379184808571 0.075000003562308848 0.29500001401174802 2.6758196946466342 0.057000002707353725 1.5400000731460748 0.15700000745709985 3.4406037072185427 0.24449282756540924 0.069000003277324029 0.28119630843866605 0.97400004626251657 5.3197895280318317 0.089000004227273832 0.15500000736210495 0.87565997603815049 0.0470000022323801 0.076929612667298808 12.271814615465699 0.060000002849847189 0.033000001567415782 0.099129775073379167 6.0411338757257909 1.0948062625247983 0.57413481187541038 1.0854704331140967 1.6673734899377448 1.1879146866267545 4.1519881556741884 0.34400001633912225 1.3610607876908032 0.60190957656596855 0.43576669355388731 5.2793680625036359 0.33145916752982885 0.081000003847293556 10.160312565742059 8.1728629842400498 9.2577870864188316 1.4426294596632923 2.4155988245038316 0.36563067894894619 3.8033170102862641 0.059000002802349627 0.30000001424923539 0.38400001823902119 0.20800000987947065
leaf_count=617 479 136643 2178 1043 14779 60807 36 1338 5278 3103 34785 6254 781 1009 2166 185 184 1507 93 1604 16768 2241 8444 577 358 3416 23985 1435 2139 200 183 89 182 225 133 55 861 478 1301 8114 2823 35389 1027 479 5818 108 64 577 14193 198 135 2891 1779 284 1992 353 849 5038 1903 677 12954 1031 50 993 107 10235 1575 21828 2421 2844 1310 2090 79 6461 114 1402 1301 180 962 2738 18569 23218 4111 7954 1230 2793 119 11082 6179 1061 802 8391 33 112 787 3901 506 355 2028 626 256 434 86 740 463 26012 3965 64 2564 132 2954 84 161 672 1552 2165 440 314 2757 725 147 74 87 33 969 242 4406 3019 97 857 20812 134 3420 378 257 442 248 58968 9175 255 2194 87 16075 5401 98895 13766 5740 246 456 2148 1044 47 185 1047 19322 94 455 158 24 53 1960 313 1695 15759 601 981 763 72 2661 1313 97 5300 1177 1000 302 741 38 1240 70 15885 10526 600 4821 1648 126 511 85 2974 100 802 2693 3312 21073 1929 1001 107 886 279 3078 350 31 6268 43 537 33 11588 4744 482 75 295 2623 57 1540 157 3325 190 69 211 974 5143 89 155 744 47 45 11893 60 33 85 5658 1079 477 1007 1631 1093 3752 344 1339 564 353 5148 235 81 9824 7200 8879 1324 2391 307 3628 59 300 384 208
internal_value=-0.0324534 -0.0317573 -0.0436114 -0.0335586 -0.0373334 -0.0302116 -0.0269169 -0.0308044 -0.0409377 -0.0327466 -0.0324961 -0.0333042 -0.0405841 -0.0356484 -0.0539301 -0.0315621 -0.042848 -0.0486956 -0.0395853 -0.0427706 -0.0397848 -0.0426745 -0.0316455 -0.0337103 -0.0537815 -0.0355663 -0.0308679 -0.0513513 -0.0483461 -0.0590662 -0.0544268 -0.0517183 -0.0539247 -0.0653556 -0.0682143 -0.0493932 -0.0366135 -0.057429 -0.0701071 -0.0319454 -0.0301753 -0.0287397 -0.0463858 -0.026634 -0.0305715 -0.0672582 -0.0752056 -0.0296229 -0.0262844 -0.0815725 -0.0412062 -0.0329055 -0.0427506 -0.0441862 -0.0484421 -0.0519884 -0.0578382 -0.0381507 -0.0358874 -0.0439606 -0.0274124 -0.0525761 -0.0510298 -0.0440186 -0.0662552 -0.0379211 -0.043472 -0.0371328 -0.0389909 -0.0421014 -0.029927 -0.0326762 -0.0686292 -0.0253033 -0.0353118 -0.0433192 -0.0341595 -0.0840506 -0.0373634 -0.0329755 -0.0281741 -0.0307419 -0.03232 -0.030758 -0.0269528 -0.0325054 -0.0351464 -0.0363443 -0.0322471 -0.04096 -0.0286254 -0.0514146 -0.0349434 -0.0566684 -0.0719592 -0.0339324 -0.0475033 -0.0441445 -0.0535253 -0.0466814 -0.0442853 -0.0486022 -0.0623198 -0.0707035 -0.0368056 -0.0384197 -0.033457 -0.0289414 -0.0346856 -0.0550285 -0.0372312 -0.0408149 -0.0540031 -0.0351716 -0.0404373 -0.0342863 -0.0260537 -0.0380288 -0.0297809 -0.0344488 -0.0349587 -0.0621391 -0.0787929 -0.0936737 -0.05797 -0.0428125 -0.0292633 -0.0308747 -0.031924 -0.0243267 -0.0299935 -0.0286331 -0.0320543 -0.046118 -0.0548872 -0.0598721 -0.0259884 -0.0302144 -0.0312536 -0.0326254 -0.0323404 -0.0620462 -0.0283455 -0.0309217 -0.0293974 -0.0342666 -0.0349742 -0.0354055 -0.0428656 -0.0466729 -0.0337816 -0.0666827 -0.0505985 -0.0529541 -0.0347515 -0.0340612 -0.0345188 -0.0558953 -0.0624586 -0.0677924 -0.0517181 -0.0343549 -0.0410267 -0.0336771 -0.0600138 -0.037014 -0.0436835 -0.0473383 -0.0344768 -0.0280142 -0.0531889 -0.0355725 -0.0282703 -0.0600176 -0.0378686 -0.0442836 -0.0660652 -0.0503017 -0.0568166 -0.0291723 -0.0310236 -0.0319957 -0.0311441 -0.0333763 -0.0471393 -0.0507138 -0.0541878 -0.028422 -0.0506358 -0.028355 -0.0298838 -0.0360865 -0.0278811 -0.0379047 -0.0334906 -0.0484661 -0.0295014 -0.0378042 -0.0284485 -0.0296591 -0.069049 -0.0243912 -0.048332 -0.0374538 -0.06829 -0.0341078 -0.0317295 -0.0448325 -0.0591746 -0.0374583 -0.0251838 -0.0278845 -0.0315608 -0.0485339 -0.0290738 -0.0591955 -0.0523727 -0.0539515 -0.036003 -0.0331319 -0.0382138 -0.0514063 -0.0558393 -0.0597605 -0.0328415 -0.0341253 -0.0534519 -0.0656799 -0.023624 -0.0340811 -0.0369791 -0.0713793 -0.0333146 -0.0355007 -0.0499219 -0.0356066 -0.0251214 -0.0302321 -0.0369961 -0.0500647 -0.028223 -0.0392519 -0.0516064 -0.033064 -0.0488313 -0.0331279 -0.0334719 -0.0367005 -0.0338895 -0.0378315 -0.0671257 -0.0335473 -0.0337938 -0.0393651
internal_weight=1168.47 1100.22 68.2505 507.151 88.9888 593.065 91.1347 501.931 52.9256 418.162 405.709 338.872 12.4524 139.569 4.30038 9.25522 43.6703 14.5001 49.2446 28.7171 29.1703 20.3839 199.304 88.3848 19.0059 54.8941 165.204 12.9812 11.3525 2.19337 18.6479 15.813 14.2253 3.65735 3.43235 10.5679 119.863 0.814753 3.29935 36.0632 413.546 118.499 9.43413 90.7582 33.4908 2.83482 0.376507 19.7056 88.2287 1.77391 26.5238 4.51052 22.0133 19.5215 11.0365 8.68015 5.49609 8.48503 8.06008 2.80159 81.6198 1.52544 4.39692 3.277 1.11991 79.6855 9.23638 70.4491 42.9055 28.1048 1.58776 8.78634 1.13381 68.2875 34.0995 3.82922 30.2703 0.311747 2.52955 8.15202 68.4541 295.047 72.4113 47.4025 15.4348 31.9676 25.0089 22.1201 9.88303 2.59911 7.28392 9.13585 20.5275 1.34344 1.05481 40.1778 7.56128 6.56595 3.30711 2.88231 1.52572 1.26972 0.675292 1.01291 46.2039 30.4696 15.7343 7.55816 3.56053 0.935604 8.17615 5.58654 1.41732 4.16922 3.18406 22.4042 2.9718 0.806802 31.9651 20.4567 19.7317 0.412555 0.265555 0.191555 1.25632 2.83106 49.5152 26.0788 22.1431 3.93572 42.6128 8.69021 5.13632 1.34882 0.967004 0.833004 3.7875 222.635 96.3505 64.7733 64.3597 0.413604 31.5772 15.1223 126.285 39.1688 35.175 19.4324 3.01974 2.56374 16.4126 0.629753 1.52141 1.40241 28.9693 19.3191 18.7021 0.903135 0.745135 0.651135 2.39099 5.0696 2.11183 27.8016 0.803604 4.99873 2.17684 1.45705 24.9532 4.09708 2.27699 6.67639 2.58961 3.49685 3.49722 1.55015 0.424952 2.35052 1.52026 37.9225 21.1928 18.3927 17.7182 12.8152 0.950258 0.824258 0.727258 8.44047 1.04812 66.837 31.5958 7.29627 24.2995 6.49427 4.45136 8.36886 19.9412 1.8515 18.0897 14.9902 2.72682 6.90235 0.941095 0.86615 1.62872 27.5436 15.4197 2.58906 0.640634 1.94843 8.96831 13.6591 5.4391 0.458493 4.9806 0.301493 1.39345 1.32445 29.2715 13.4297 15.8418 1.11966 0.96466 1.23144 14.8007 12.3487 0.946731 2.43946 1.67511 12.4557 7.13594 0.598135 3.25884 2.75284 1.32119 20.8561 14.0552 2.49174 1.13068 0.528767 6.03583 0.756459 0.412459 10.7373 8.26186 17.799 17.344 8.08618 6.64355 4.22795 0.424631 0.830258 2.35634 12.2371
internal_count=1122829 1060346 62483 489592 85068 570754 89256 481498 50093 404524 392679 327084 11845 133816 3980 8962 41131 13689 45742 26177 27442 19009 193268 83581 16741 51363 160628 12182 10714 1804 16383 14066 12573 3229 3004 9344 114538 710 2871 34975 397917 114762 8423 88976 32218 2317 280 19278 86634 1499 24373 4191 20182 17833 9893 7730 4731 7940 7618 2580 79373 1372 3882 2985 897 76280 8674 67606 41039 26680 1493 8433 921 67268 32640 3573 29067 216 2342 7865 66419 283155 68887 45381 14992 30389 23506 20683 9393 2412 6981 8575 19565 1190 842 38258 7014 6153 3009 2654 1353 1097 520 790 43068 28085 14983 7326 3361 797 7657 5142 1214 3928 2999 21592 2919 754 30865 19532 18807 341 194 120 1053 2646 47850 25047 21171 3876 41103 8295 4879 1211 833 699 3668 214268 92155 61504 61162 342 30651 14576 122113 37249 33348 18673 2850 2394 15823 525 1351 1232 27766 18466 17849 806 648 554 2171 4852 2008 26278 665 4762 2024 1300 23485 3974 2057 6343 2515 3199 3256 1380 322 2073 1310 36697 20352 17595 16995 12174 819 693 596 8252 901 65595 30810 7044 23766 6242 4313 7396 19366 1745 17621 14543 2209 6747 859 816 1468 26567 14979 2404 557 1847 8877 13383 5269 404 4865 247 1261 1192 27608 12854 14754 988 833 1078 14359 11938 801 2199 1660 11880 6737 501 3144 2638 1165 19511 13762 2349 1010 446 5808 660 316 10401 7289 17043 16588 7709 6385 3994 366 763 2163 11290
cat_boundaries=0 1 2 3 4 5 6 7 8 9 10 11
cat_threshold=4 2 4 8 4 4 4 4 4 2 8
is_linear=0
shrinkage=0.05


Tree=40
num_leaves=34
num_cat=0
split_feature=9 10 16 14 14 11 14 14 14 14 14 14 14 14 14 11 11 11 14 11 11 11 11 14 14 14 14 11 14 11 14 11 14
split_gain=724.526 16.2952 12.9136 4.31721 6.9857 9.07224 9.07476 6.87039 2.7251 3.82545 8.85628 2.70409 1.76102 4.60605 7.0903 1.78526 11.8858 1.13054 1.05078 1.00025 0.928951 0.863407 0.759451 0.680186 0.661097 0.626775 0.396167 0.342735 0.2555 0.144255 0.113995 0.0756449 0.0356242
threshold=1.0000000180025095e-35 5.5000000000000009 4.5000000000000009 3.2373969942500005 1.2862406091500003 1.6441225047000001 1.4876798837000003 3.2359200840000004 6.1902383925000013 4.8468416049500007 4.7797559646500014 1.1738422566000002 2.3836376088500004 3.0394991161000005 2.9055649309500002 2.1100339960500007 2.0081448880500008 6.2872835782000012 2.4186367150500003 0.14811368335000002 1.4196176214500003 1.2212929758000002 2.7610918979000005 2.2298079223500005 4.8886521253500002 5.8783116481500004 4.6339460485500013 2.8835607226000004 3.2652369752000006 4.8886521253500002 2.3169726926500007 3.0117756898000008 1.2523829863000002
decision_type=2 2 2 2 2 2 2 2 2 2 2 2 2 2 2 2 2 2 2 2 2 2 2 2 2 2 2 2 2 2 2 2 2
left_child=-1 2 11 4 32 20 -7 12 9 10 17 19 15 14 18 16 -8 26 -14 -2 21 -6 -20 -17 -11 29 28 -21 -5 -13 -25 -16 -4
right_child=1 -3 3 8 5 6 7 -9 -10 24 -12 25 13 -15 31 23 -18 -19 22 27 -22 -23 -24 30 -26 -27 -28 -29 -30 -31 -32 -33 -34
leaf_value=-0.019520306503896679 -0.029141938906565343 -0.069474134778017255 -0.1463281126456831 -0.0039446077402793102 -0.22733110582350122 -0.35996793373421843 -0.14034110320748439 -0.33743728052765731 -0.18331890227576084 -0.005207163823497174 -0.34562605274818925 -0.12123341621664861 -0.21802737043717169 -0.13372671461535199 -0.076331129578139839 -0.15212110292381203 -0.29444953540696589 -0.18612920776777694 -0.0058576872524214365 -0.20043607682782727 -0.32162113763109323 -0.030311606024416633 -0.16222630203448318 -0.0031313675242661491 -0.12769096088306039 -0.0069848055905983395 -0.0048265592708745626 -0.033943858341031467 -0.14292194170828584 -0.096845133055135535 -0.10233807391633676 -0.31513164935140431 -0.10935533107072451
leaf_weight=1070.5850508500589 0.13686414028052141 4.602419175207614 4.5255155906779683 0.03900000185240049 1.6585485211107873 0.75878585770260798 4.8197070152964541 0.72428041149396349 12.989277688204309 0.12000000569969316 0.65813555312343019 8.6390433805063314 2.9752147988183406 2.9817468726541838 0.078605128917842992 7.9931443419773114 1.8489440259290857 3.9108834266662598 0.087000004132278597 1.5523299945052711 1.818888673558831 0.091909819864667841 3.8481515740277246 0.036000001709908136 11.424647998297585 0.15100000717211592 0.060000002849846967 0.077744201873429009 7.4578750093933195 3.9929443430155525 1.5727578850928692 1.7248262290377168 1.9458433917025102
leaf_count=1070585 116 716 2610 39 721 203 2830 127 6660 120 170 5541 1349 1802 46 4471 635 1915 87 716 653 68 2137 36 7116 151 60 56 4339 2821 1002 559 1231
internal_value=-0.031288 -0.163322 -0.168003 -0.176432 -0.189203 -0.198981 -0.188405 -0.182633 -0.162197 -0.149884 -0.170955 -0.122985 -0.177436 -0.19608 -0.215658 -0.162918 -0.186788 -0.15803 -0.187161 -0.184325 -0.278727 -0.219183 -0.159 -0.144585 -0.126473 -0.113141 -0.141246 -0.194916 -0.14226 -0.114346 -0.100431 -0.30928 -0.137044
internal_weight=1165.89 95.302 90.6996 76.1497 39.4899 33.0185 29.4492 28.6904 36.6598 23.6705 12.1259 14.5499 27.9661 11.6955 8.7138 16.2706 6.66865 11.4678 6.91037 1.76694 3.56935 1.75046 3.93515 9.6019 11.5446 12.783 7.55688 1.63007 7.49688 12.632 1.60876 1.80343 6.47136
internal_count=1121688 51103 50387 40986 20567 16726 15284 15081 20419 13759 6523 9401 14954 5980 4178 8974 3465 6353 3573 888 1442 789 2224 5509 7236 8513 4438 772 4378 8362 1038 605 3841
is_linear=0
shrinkage=0.05


Tree=41
num_leaves=21
num_cat=0
split_feature=9 1 1 1 9 10 10 10 10 10 1 11 11 11 14 10 14 11 11 14
split_gain=973.983 264.348 61.6549 27.4411 20.2814 5.19776 4.96589 4.56354 3.30049 1.93359 1.92932 0.757195 0.474522 0.485916 0.359047 0.305677 0.13512 0.074002 0.0639041 0.0166881
threshold=1.0000000180025095e-35 9.5000000000000018 11.500000000000002 6.5000000000000009 1.5000000000000002 5.5000000000000009 5.5000000000000009 5.5000000000000009 5.5000000000000009 1.5000000000000002 4.5000000000000009 2.6912818731500008 0.14811368335000002 6.1560896127000015 1.7097130996500003 1.5000000000000002 0.28597850040000006 9.934936921550003 10.145511244500002 1.0246684186000001
decision_type=2 2 2 2 2 2 2 2 2 2 2 2 2 2 2 2 2 2 2 2
left_child=-1 3 7 8 -4 -6 9 -3 10 14 12 -12 19 15 16 -14 -5 -15 -19 -2
right_child=1 2 4 6 5 -7 -8 -9 -10 -11 11 -13 13 17 -16 -17 -18 18 -20 -21
leaf_value=-0.018530283782296725 -0.043742391800162705 -0.29443667280502889 -0.55890936831428362 -0.081878758215320174 -0.35838169613865828 -0.052690565354003287 -0.068576451843167616 -0.089232245785905745 -0.074482414115735168 -0.22958269167212025 -0.17590124732084994 -0.13934705507809389 -0.12164141590012981 -0.10334999474301915 -0.18712200350778396 -0.13945311598517457 -0.0020433965393900537 -0.0049192941058045468 -0.058980532098957678 -0.0024827838024947288
leaf_weight=1070.5850508500589 0.23305432265624304 9.097534398897551 4.4873149793129405 0.082978471298708167 1.8932306680362674 0.1902023241855203 0.81022682541515578 0.38928877993021238 2.9020931241102508 8.2992444076808152 4.3364372302312395 10.379206750541924 18.873589724767957 3.0298411995172496 10.392575070611199 12.736862819758242 0.082000003894791007 0.087000004132278153 0.26894737756811082 0.040000001899898052
leaf_count=1070585 198 4463 1925 57 322 12 138 41 517 3232 2442 6941 14164 2192 7050 6979 82 87 221 40
internal_value=-0.0317246 -0.190935 -0.374145 -0.149928 -0.493726 -0.334166 -0.200814 -0.287035 -0.130662 -0.206104 -0.133769 -0.151233 -0.126075 -0.126631 -0.185666 -0.129235 -0.0579441 -0.0993031 -0.0497439 -0.0399839
internal_weight=1159.2 88.6116 16.0576 72.5541 6.57075 2.08343 19.667 9.48682 52.887 18.8568 49.9849 14.7156 35.2693 34.9962 10.5576 31.6105 0.164978 3.38579 0.355947 0.273054
internal_count=1121688 51103 6763 44340 2259 334 10559 4504 33781 10421 33264 9383 23881 23643 7189 21143 139 2500 308 238
is_linear=0
shrinkage=0.05


Tree=42
num_leaves=35
num_cat=0
split_feature=9 1 1 9 1 10 1 10 10 10 10 9 11 10 11 1 1 11 11 11 10 11 11 11 11 11 11 10 11 11 11 11 11 10
split_gain=1338.68 623.135 131.536 40.3475 22.7548 14.0803 10.8857 8.13708 4.66981 6.05179 3.38868 3.23914 2.07203 2.06474 1.98242 1.10747 1.05072 0.583704 0.600967 0.571877 0.512454 0.372714 0.367429 0.365958 0.335378 0.183321 0.16037 0.143022 0.118971 0.108176 0.0800464 0.0202742 0.00845257 0.00666383
threshold=1.0000000180025095e-35 11.500000000000002 7.5000000000000009 1.5000000000000002 9.5000000000000018 5.5000000000000009 6.5000000000000009 5.5000000000000009 5.5000000000000009 1.5000000000000002 5.5000000000000009 1.5000000000000002 0.20565257145000002 5.5000000000000009 1.7388466256000001 4.5000000000000009 4.5000000000000009 0.0038231098000000006 6.1560896127000015 16.177866999000006 1.5000000000000002 7.7155192557500003 2.7422228351500002 2.6135356605500006 45.694244846000011 21.739611316000005 11.788062609000002 1.5000000000000002 1.4382927354500004 2.6912818731500008 0.14811368335000002 11.788062609000002 1.0000000180025095e-35 2.5000000000000004
decision_type=2 2 2 2 2 2 2 2 2 2 2 2 2 2 2 2 2 2 2 2 2 2 2 2 2 2 2 2 2 2 2 2 2 2
left_child=-1 2 6 12 8 -5 10 -6 9 14 11 15 -3 20 -4 17 21 -2 22 29 -8 30 23 28 25 -21 27 -20 -19 -17 32 -23 -13 -29
right_child=1 3 4 5 7 -7 13 -9 -10 -11 -12 16 -14 -15 -16 19 -18 18 26 24 -22 31 -24 -25 -26 -27 -28 33 -30 -31 -32 -33 -34 -35
leaf_value=-0.017635049484345352 -0.0036856291744840259 -0.1297904166971697 -0.0017786072702285919 -0.55744560739553728 -0.38144009498801523 -0.05766115193035707 -0.19341019059282114 -0.10241129482961367 -0.070511888560426061 -0.30819977638227813 -0.084871386674742463 -0.042849334618199945 -0.89035817957295904 -0.067065428367324306 -0.22256838453777031 -0.18643221242968933 -0.1958376714172716 -0.14066906826999648 -0.10050196343069218 -0.076851765602687333 -0.25625109580036826 -0.0053695125244081366 -0.14517894275851706 -0.0018759582950573471 -0.17425452228000113 -0.0016639550157572462 -0.0021814692721783655 -0.032096109826156502 -0.11327668113449474 -0.14706892136276792 -0.15721596654267966 -0.045153206054923206 -0.0036999501775834965 -0.001895877780434786
leaf_weight=1070.5850508500589 0.098000004654756334 0.046251182327977758 0.10500000498723228 1.4030072304885832 7.8486864793812838 0.18271139485295851 3.7260381808737284 0.36080003855749954 0.42704670247621912 4.7286863593617454 2.6893722510430953 0.046492450637743654 3.2035768501227722 0.33115898573305447 6.1225042741280049 2.5373883018037269 4.6725743534043422 3.3631489841500333 2.005757667706348 0.71551172784529704 2.5284107844345272 0.082000003894791784 9.2069046474061889 0.066000003134832563 0.080613475292921066 0.095000004512257874 0.051000002422369906 0.14199800440110255 7.6145381771493703 5.8599957684054971 11.125869964831507 0.039761386346071959 0.03800000180490315 0.034000001614913344
leaf_count=1070585 98 35 105 322 4463 12 2743 41 82 1983 517 27 1890 56 4341 1804 2372 2508 1631 618 1249 82 6848 66 36 95 51 127 6074 4458 6276 21 38 34
internal_value=-0.0325226 -0.227638 -0.192323 -0.772862 -0.304163 -0.506696 -0.153516 -0.370557 -0.25347 -0.259899 -0.145 -0.148194 -0.883732 -0.215754 -0.218933 -0.137502 -0.168498 -0.129323 -0.129852 -0.155796 -0.222447 -0.155611 -0.133289 -0.122163 -0.0953166 -0.0691896 -0.094302 -0.0962654 -0.122863 -0.161017 -0.156642 -0.0328638 -0.0367912 -0.0290627
internal_weight=1152.16 81.5778 76.7423 4.83555 19.5927 1.58572 57.1495 8.20949 11.3832 10.9562 50.5639 47.8746 3.24983 6.58561 6.2275 31.8699 16.0047 22.5813 22.4833 9.28851 6.25445 11.3321 20.2506 11.0437 0.891125 0.810512 2.23276 2.18176 10.9777 8.39738 11.2104 0.121761 0.0844925 0.175998
internal_count=1121688 51103 48844 2259 11015 334 37829 4504 6511 6429 33781 33264 1925 4048 4446 24448 8816 17437 17339 7011 3992 6444 15496 8648 749 713 1843 1792 8582 6262 6341 103 65 161
is_linear=0
shrinkage=0.05


Tree=43
num_leaves=31
num_cat=0
split_feature=9 1 1 10 1 1 10 10 10 14 1 10 10 14 10 10 10 14 10 10 14 14 0 14 14 13 13 0 14 0
split_gain=1828.45 1418.33 234.487 104.896 44.4218 17.4368 14.8255 14.5068 14.2547 12.8661 4.83507 2.88698 3.52816 1.93242 1.84794 2.96926 1.53707 1.53646 1.34134 1.20041 0.947483 0.852577 0.692517 0.51742 1.13473 0.290681 0.725322 0.277226 0.0477538 0.0270701
threshold=1.0000000180025095e-35 11.500000000000002 7.5000000000000009 5.5000000000000009 9.5000000000000018 6.5000000000000009 1.5000000000000002 5.5000000000000009 5.5000000000000009 0.25319992225000004 4.5000000000000009 5.5000000000000009 1.5000000000000002 3.1321142187000004 1.5000000000000002 5.5000000000000009 1.5000000000000002 0.15581568315000002 5.5000000000000009 5.5000000000000009 7.1882067638500011 3.2373969942500005 8.5000000000000018 21.413335315000001 15.305835661500003 6.5000000000000009 4.5000000000000009 11.500000000000002 11.788062609000002 13.500000000000002
decision_type=2 2 2 2 2 2 2 2 2 2 2 2 2 2 2 2 2 2 2 2 2 2 2 2 2 2 2 2 2 2
left_child=-1 2 5 9 6 10 -4 -6 -8 -3 14 12 22 18 17 20 23 -2 -12 21 -16 -18 -7 24 -15 26 -19 -24 -22 -29
right_child=1 3 4 -5 7 11 8 -9 -10 -11 13 -13 -14 16 15 -17 19 25 -20 -21 28 -23 27 -25 -26 -27 -28 29 -30 -31
leaf_value=-0.016821633950048268 -0.0032115208008708825 -0.072962077657322211 -0.25105621016181195 -0.061652832822429442 -0.50147277339974439 -0.12465885699756762 -0.41479550045457769 -0.11880449997820919 -0.07874145161218693 -1.338143095483717 -0.21573096821010848 -0.074518722457741701 -0.32189196406559845 -0.13503950866468137 -0.17716023251708471 -0.096346638137427568 -0.001633739989810995 -0.11306146887249613 -0.079415557961970626 -0.080786146959586191 -0.0040062943580474551 -0.21350064722424064 -0.23405279010261856 -0.23739315246973086 -0.048151297313391676 -0.11841479841901825 -0.15257827254191914 -0.00043439727221076282 -0.051013112046543047 -0.056391207596398957
leaf_weight=1070.5850508500589 0.21400001016445713 0.032174394698813447 5.8394035842502507 0.1826780637493356 6.6566414454719043 0.58732190250884686 3.9622145384782925 0.33219123003073026 0.39962938777171064 3.138117800350301 7.0045420997776073 0.31162927264813323 2.2259395360015333 3.0495086754672238 12.43329447356518 1.7587740988237772 0.050000002374873342 3.0636214417172623 0.34171143441926677 0.38210338295903046 0.12200000579468984 2.3541335059562698 2.8712533679790799 0.14326199935749162 0.59508100931998331 4.771216830937191 11.915295487502588 0.027000001282431074 0.034519716864451766 0.052649448276497424
leaf_count=1070585 214 27 4446 20 4463 499 1983 41 82 2212 4783 56 1249 2512 7736 389 50 2550 60 68 122 1410 2173 75 553 3923 9317 27 19 44
internal_value=-0.0335375 -0.272279 -0.224133 -1.26272 -0.384907 -0.17263 -0.312142 -0.485216 -0.386461 -1.32793 -0.161865 -0.254081 -0.262352 -0.188827 -0.15041 -0.166607 -0.161771 -0.137997 -0.210542 -0.195116 -0.175586 -0.209336 -0.217077 -0.132856 -0.122517 -0.139434 -0.145299 -0.230782 -0.0302186 -0.0482231
internal_weight=1145.44 74.8519 71.4989 3.35297 17.1901 54.3089 10.2012 6.98883 4.36184 3.17029 48.2331 6.07579 5.76416 13.9203 34.3127 14.3486 6.57409 19.9641 7.34625 2.78624 12.5898 2.40413 3.53822 3.78785 3.64459 19.7501 14.9789 2.9509 0.15652 0.0796494
internal_count=1121688 51103 48844 2259 11015 37829 6511 4504 2065 2239 33781 4048 3992 9511 24270 8266 4668 16004 4843 1528 7877 1460 2743 3140 3065 15790 11867 2244 141 71
is_linear=0
shrinkage=0.05


Tree=44
num_leaves=58
num_cat=0
split_feature=9 1 1 10 16 1 10 10 1 10 14 9 10 10 10 1 11 1 14 0 13 14 0 0 11 14 11 14 11 11 14 0 14 11 0 10 14 11 11 0 11 11 13 11 14 14 11 11 11 11 14 11 0 13 14 11 0
split_gain=2419.67 2558.19 395.51 231.265 96.5537 77.4479 45.9776 28.9211 27.1195 24.5008 21.3835 9.16762 9.80842 5.64873 8.85217 4.33134 3.45532 2.54724 3.54771 1.4518 1.42757 1.46491 1.40921 1.36132 0.909786 1.07956 0.745635 0.73092 0.62581 0.546297 0.533004 0.507108 0.499701 0.332455 0.28562 0.275484 0.271153 0.265789 0.219866 0.148147 0.0975752 0.136782 0.0956935 0.0916413 0.0796797 0.177985 0.0613536 0.0667324 0.0535313 0.0524777 0.0514084 0.0293439 0.0282236 0.0271411 0.0231156 0.0187734 0.00487234
threshold=1.0000000180025095e-35 11.500000000000002 7.5000000000000009 5.5000000000000009 6.5000000000000009 9.5000000000000018 1.5000000000000002 5.5000000000000009 6.5000000000000009 5.5000000000000009 0.57864379495000018 1.5000000000000002 5.5000000000000009 1.5000000000000002 5.5000000000000009 4.5000000000000009 1.7388466256000001 4.5000000000000009 3.1321142187000004 9.5000000000000018 6.5000000000000009 4.5342349649500013 12.500000000000002 8.5000000000000018 2.7422228351500002 2.1672614288500003 1.4196176214500003 0.15581568315000002 7.7155192557500003 7.2441930369000014 2.9960882552000005 11.500000000000002 1.4382927354500004 0.14811368335000002 4.5000000000000009 2.5000000000000004 3.6645414692000005 86.067685352000012 2.6135356605500006 2.5000000000000004 3.1374765563000007 2.9055649309500002 4.5000000000000009 3.5063686857000005 1.2862406091500003 0.30692446365000009 0.30692446365000009 0.26011013905000008 10.145511244500002 10.493616405500001 2.7364957832000005 11.788062609000002 13.500000000000002 3.0000000000000004 1.0000000180025095e-35 1.0000000180025095e-35 3.5000000000000004
decision_type=2 2 2 2 2 2 2 2 2 2 2 2 2 2 2 2 2 2 2 2 2 2 2 2 2 2 2 2 2 2 2 2 2 2 2 2 2 2 2 2 2 2 2 2 2 2 2 2 2 2 2 2 2 2 2 2 2
left_child=-1 2 8 4 -3 6 16 -8 11 37 -6 17 15 23 -15 22 -4 20 35 34 24 32 28 -10 26 -26 27 54 33 -23 -27 -25 46 55 39 44 -34 -7 -28 -20 41 -32 53 -24 45 -19 47 -22 -31 -42 -37 -30 -33 -29 -2 -13 -41
right_child=1 3 5 -5 10 9 7 -9 13 -11 -12 12 -14 14 -16 -17 -18 18 19 -21 21 29 43 31 25 30 38 42 51 48 40 52 36 -35 -36 50 -38 -39 -40 56 49 -43 -44 -45 -46 -47 -48 -49 -50 -51 -52 -53 -54 -55 -56 -57 -58
leaf_value=-0.01607933101416811 -0.041307976777680389 -2.4251164565998224 -0.00086905401158230778 -0.067899322653957525 -0.070590521995322564 -0.65568482862627953 -0.57481952420118021 -0.087548176358259691 -0.13150017701269304 -0.13888931184255268 -1.4654569982308492 -0.048524923081065305 -0.11033172510151773 -0.40941570923907511 -0.082686551249378223 -0.28128617270795708 -0.29125890366654578 -0.1013517108928555 -0.094260925076271956 -0.20646430857153628 -0.0033993095548901448 -0.15621611838745761 -0.001808508240960035 -0.26493431211617924 -0.00088287137652925225 -0.22556045994833079 -0.1253866528943953 -0.052559486427567484 -0.0039431126775598749 -0.0021759424305571947 -0.082351869652454071 -0.00043386129266566911 -0.099942003216079392 -0.21156269359637078 -0.12980858624483627 -0.00058947717749257612 -0.0014113842733780657 -0.078811981791477831 -0.00082401904741664055 -0.024425625091671403 -0.16810401980387846 -0.0008396588118492898 -0.17690030370538054 -0.065634184359287501 -0.22866946783589046 -0.00036957703233419652 -0.0016176374843056064 -0.064161416391473047 -0.051347081352887271 -0.043547577475971294 -0.062269798315019192 -0.051613724702807486 -0.057547516813900891 -0.00050580546399110987 -0.0010702671328261038 -0.0022594527968797917 -0.00030969380965444309
leaf_weight=1070.5850508500589 0.10133186518215564 1.1197315622121091 0.1050000049872305 0.17465962877031405 0.038731022621505073 5.601390126394107 3.2179575964109977 0.37892322707921255 0.5757706383010367 0.30492368456907559 1.1533110273303462 0.042743370635433986 2.3111914698965839 1.9320304268039765 0.29574564844369877 3.8780754534527651 5.3839464869815856 0.075964159914290508 0.081534212687984442 1.0254617866594342 0.089000004227272611 2.462969363899902 0.082000003894791784 2.7075919606722896 0.087000004132277264 1.4224675012519581 5.2174522000132129 0.060344009427354073 0.066000003134832563 0.099000004702247568 0.10080542054492969 0.027000001282431074 2.1890758890658621 9.5449881383683515 2.7166705110576004 0.048000002279877552 0.075000003562308737 0.031240975600667187 0.037000001757405587 0.25743913010228425 5.997274060617201 0.072000003419816494 2.8256454054499045 0.131158318486996 4.2559593667974696 0.059000002802349627 0.20600000978447497 0.02629529417026788 0.059490215964615345 0.091113591566681751 0.031963596469722688 0.036085053812712431 0.052119308733381331 0.032000001519918442 0.050000002374872565 0.03800000180490315 0.025000001187436283
leaf_count=1070585 91 1079 105 20 34 4435 1983 82 499 41 1126 27 506 1249 56 2372 4341 61 64 793 89 1959 82 2173 87 1038 4394 51 66 99 81 27 1892 6105 2325 48 75 28 37 248 4812 72 2233 105 3370 59 206 16 49 81 22 21 44 32 50 38 25
internal_value=-0.0346036 -0.321131 -0.260812 -1.86477 -1.99208 -0.4861 -0.386093 -0.527243 -0.194404 -0.630205 -1.42911 -0.180971 -0.212933 -0.29984 -0.371457 -0.229176 -0.285819 -0.163063 -0.189714 -0.148326 -0.151495 -0.121968 -0.206249 -0.243034 -0.160235 -0.177057 -0.142617 -0.168654 -0.209145 -0.150287 -0.179015 -0.260725 -0.0887261 -0.210551 -0.123091 -0.223649 -0.0968758 -0.653916 -0.124541 -0.0557812 -0.16506 -0.0611466 -0.174302 -0.049499 -0.225782 -0.0761522 -0.0219341 -0.0406221 -0.0333567 -0.166974 -0.0461459 -0.0379959 -0.0491806 -0.0441624 -0.0337289 -0.040048 -0.0229301
internal_weight=1139.69 69.1086 66.6221 2.48643 2.31177 15.0234 9.08583 3.59688 51.5988 5.93755 1.19204 46.0085 16.1302 5.59026 2.22778 13.8191 5.48895 29.8783 8.57699 4.10611 21.3013 5.20683 9.94097 3.36248 16.0944 7.77066 8.32377 3.06932 9.72782 2.62146 7.68366 2.78671 2.58537 9.62573 3.08064 4.47089 2.26408 5.63263 5.25445 0.363973 6.26119 0.172805 2.91799 0.213158 4.39092 0.134964 0.321295 0.115295 0.15849 6.08839 0.0799636 0.102085 0.0791193 0.092344 0.151332 0.0807434 0.282439
internal_count=1121688 51103 48844 2259 2239 11015 6511 2065 37829 4504 1160 33781 9322 4048 1305 8816 4446 24459 7015 3455 17444 4385 6444 2743 13059 6171 6888 2457 6257 2107 6084 2244 2278 6170 2662 3560 1967 4463 4431 337 5046 153 2316 187 3490 120 311 105 148 4893 70 87 71 83 141 65 273
is_linear=0
shrinkage=0.05


Tree=45
num_leaves=60
num_cat=0
split_feature=9 1 1 10 1 10 14 10 1 10 11 9 10 9 0 10 11 1 0 0 11 9 10 11 0 0 0 11 14 14 0 11 0 8 0 0 11 11 1 14 14 14 14 11 14 14 11 11 11 9 11 14 14 14 14 14 11 0 11
split_gain=2973.96 2759.46 576.405 202.818 98.7186 73.7225 64.8451 56.3329 42.1301 40.3318 22.9832 21.1927 23.618 19.2509 19.0485 12.383 11.5065 11.2035 7.88945 7.3992 6.24099 5.15962 4.35004 3.29452 3.21595 2.88648 2.2755 2.14193 3.09091 1.92048 1.68779 1.8844 1.57907 1.51987 1.0266 1.00767 0.868103 0.653336 0.610651 0.598516 0.547466 0.353982 0.311799 1.17832 0.498927 0.294265 0.189641 0.197213 0.18002 0.149819 0.0985037 0.0868233 0.0836437 0.0814695 0.293014 0.0557233 0.0188632 0.00431592 1.82508e-06
threshold=1.0000000180025095e-35 11.500000000000002 7.5000000000000009 5.5000000000000009 9.5000000000000018 1.5000000000000002 0.57864379495000018 5.5000000000000009 4.5000000000000009 5.5000000000000009 8.3157480304000018 1.5000000000000002 5.5000000000000009 1.5000000000000002 12.500000000000002 1.5000000000000002 14.132483010000001 6.5000000000000009 2.5000000000000004 13.500000000000002 21.523301888000002 1.5000000000000002 5.5000000000000009 10.731350542500001 6.5000000000000009 8.5000000000000018 11.500000000000002 2.4186367150500003 3.0722150375000004 0.15581568315000002 12.500000000000002 6.1560896127000015 13.500000000000002 1.0000000180025095e-35 7.5000000000000009 11.500000000000002 0.14811368335000002 1.7388466256000001 2.5000000000000004 15.823367400000002 21.739611316000005 11.788062609000002 2.1672614288500003 3.1826164615500003 1.7519817181000004 3.3306102492000007 6.0038843432000002 0.14811368335000002 6.1560896127000015 1.5000000000000002 5.8656826031000007 1.9621952039000001 3.1922925794500006 13.283045025000002 5.519505038250001 21.523301888000002 1.0000000180025095e-35 12.500000000000002 2.5866766085500004
decision_type=2 2 2 2 2 2 2 2 2 2 2 2 2 2 2 2 2 2 2 2 2 2 2 2 2 2 2 2 2 2 2 2 2 10 2 2 2 2 2 2 2 2 2 2 2 2 2 2 2 2 2 2 2 2 2 2 2 2 2
left_child=-1 2 8 6 5 18 -3 21 15 13 14 20 17 19 -8 29 -15 39 58 23 27 25 30 -6 -22 -7 -26 57 35 -2 31 36 -23 -20 53 -29 56 -35 41 -13 52 46 43 44 -40 -32 47 -31 -48 -47 -21 -46 -36 54 -30 -41 -17 -10 -4
right_child=1 3 4 -5 9 7 10 -9 11 -11 -12 12 -14 16 -16 22 -18 -19 33 50 24 32 -24 -25 26 -27 -28 28 34 38 45 -33 -34 37 40 -37 -38 -39 42 55 -42 -43 -44 -45 51 49 48 -49 -50 -51 -52 -53 -54 -55 -56 -57 -58 -59 -60
leaf_value=-0.01539932559563012 -0.0031164454298714893 -0.26557683931591031 -0.0006500099712080542 -0.068246607268894408 -0.74241194558065671 -0.10346412345717133 -2.1989167726389121 -0.10367855972328505 -0.2677416508916185 -0.1539785266634297 -0.18314824428169413 -0.34368422004817645 -0.12451074428625458 -1.0851068081246638 -0.26243931274128601 -0.046778286218855686 -1.3917203959533677e-05 -0.55025423385327954 -6.3108423285479495e-05 -4.5547713648851874e-06 -0.00055704503939606371 -0.83556187244521307 -0.1257213875808082 -0.39281427279936082 -0.4183280371338744 -0.52032818471774378 -0.00032409789076770089 -0.24777924078606334 -0.081697581621067938 -0.00035385503746858041 -0.0016133802944400409 -0.14440223650243039 -0.07976758586899782 -0.052850735727220481 -0.046305206406701771 -0.00036654341669380315 -0.24593145874787387 -0.35942882328423548 -0.16561305328857384 -0.00029401168849316146 -0.00023527872765928133 -0.00041165560502357977 -0.18419671397196236 -0.0011228327568493699 -0.00026001804150148681 -0.00057435343458170211 -0.00079468382565812349 -0.14852463375143074 -0.11003367966471095 -0.11531772703898178 -0.089229657507134963 -0.099617240685079586 -0.18241757092704269 -0.14853924244615765 -0.00078699375338566607 -0.071702136734592081 -0.0020269211187453808 -0.056818367502695456 -0.00013828309607282551
leaf_weight=1071.936050914228 0.21200001006946578 0.077331778593361267 0.064000003039834996 0.13645830762106914 3.4315365960355848 0.10593750618863929 2.1100001002196231 0.41742478753440071 3.4848918827483435 0.31411178153939534 0.034000001614913233 3.2785501473117615 0.98325383360497642 0.97899020824115701 0.042000001994892844 0.052995455800551095 0.025000001187436283 1.3261446343967689 0.03000000142492254 0.041000001947395392 0.053000002517365696 1.8195562687469644 1.4657202308299009 0.44641836895607401 0.7601169403642416 0.55811756814364344 0.034000001614913344 3.0462577184662227 0.56233503017574538 0.023000001092441269 0.099000004702248456 1.042009097523988 0.029313631705008336 0.055104038212449136 0.091821986832656743 0.042000001994892844 9.7216359138255921 5.0282489649252966 2.2822179354261598 0.036000001709908136 0.043000002042390295 0.045000002137386086 5.4964294765377417 0.14200000674463797 0.023000001092441269 0.033000001567415893 0.040000001899897941 7.86163088621106 1.7283523920923469 0.16465621825773269 0.026104929624125361 0.93577460083179176 3.432606007438153 0.083641577046364546 0.13700000650715083 0.025242703850381076 0.039000001852400601 0.061706411419436225 0.098000004654750228
leaf_count=1071936 212 73 64 19 3223 101 2110 86 2951 42 34 2242 168 788 42 38 25 951 30 41 53 1349 392 427 577 483 34 2551 518 23 99 797 26 45 84 42 6834 4240 1919 36 43 45 4533 142 23 33 40 6764 1496 115 25 830 2896 63 137 18 39 55 98
internal_value=-0.0352934 -0.36407 -0.29825 -1.99403 -0.587045 -0.467533 -2.10233 -0.670422 -0.217652 -0.761181 -2.15285 -0.280594 -0.363493 -0.795906 -2.17445 -0.181839 -1.06054 -0.410185 -0.344457 -0.704007 -0.2383 -0.756994 -0.221383 -0.713054 -0.380037 -0.476071 -0.402469 -0.22404 -0.200902 -0.154252 -0.232727 -0.236207 -0.828287 -0.355135 -0.165131 -0.244531 -0.2444 -0.357189 -0.15595 -0.340187 -0.178143 -0.141243 -0.170262 -0.142984 -0.148979 -0.0779441 -0.141888 -0.148102 -0.107737 -0.10279 -0.0673406 -0.0974834 -0.180247 -0.0923871 -0.0679286 -0.0559415 -0.0387437 -0.265731 -0.00051138
internal_weight=1136.69 64.7576 62.3579 2.39979 13.4689 8.2057 2.26333 2.93035 48.889 5.26316 2.186 17.4816 5.64919 4.94905 2.152 31.4074 1.00399 4.66594 5.27535 3.94506 11.8324 2.51292 12.618 3.87795 0.847117 0.664055 0.794117 10.9853 7.43866 18.7894 11.1523 10.8556 1.84887 5.11335 4.3504 3.08826 9.81363 5.08335 18.5774 3.33979 3.56743 9.69798 8.87942 3.38299 3.24099 0.296656 9.65298 7.88463 1.76835 0.197656 0.0671049 0.958775 3.52443 0.782977 0.699335 0.0612427 0.0919955 3.5466 0.162
internal_count=1123100 51164 48886 2278 11093 6522 2259 2045 37793 4571 2186 13419 3415 4529 2152 24374 813 3247 4477 3716 10004 1959 8347 3650 664 584 611 9340 6334 16027 7955 7708 1375 4315 3741 2593 6911 4285 15815 2296 3023 8368 7447 2914 2772 247 8323 6787 1536 148 66 853 2980 718 655 54 77 3006 162
is_linear=0
shrinkage=0.05


Tree=46
num_leaves=122
num_cat=0
split_feature=9 16 9 9 13 14 14 14 0 14 11 14 0 14 14 14 11 11 14 16 14 11 11 14 11 11 14 11 0 14 11 14 14 0 11 0 11 11 11 11 11 11 14 14 14 14 0 14 11 13 14 14 0 11 14 14 0 11 0 14 11 14 0 0 11 0 14 0 14 0 14 11 14 0 0 11 0 0 11 11 11 0 14 11 14 14 14 14 14 11 14 11 14 11 11 11 14 14 11 11 14 0 0 11 0 14 14 11 14 11 14 14 11 14 14 9 11 0 9 14 11
split_gain=3552.95 156.722 107.835 111.996 79.8636 53.4138 37.5416 169 64.2341 46.5589 169.063 144.122 39.7002 35.4913 30.8859 46.9592 39.1635 28.8755 26.6782 23.9221 36.7503 29.8999 47.0177 33.4859 18.1732 35.265 13.3449 11.3818 11.3801 10.9666 123.954 13.6904 14.0659 10.2025 10.0999 9.55355 8.7448 16.0453 13.1093 12.0995 8.56013 8.29193 6.98088 5.93919 9.24915 5.20255 4.90824 4.88204 4.72194 10.571 7.75464 6.16028 4.72136 4.3823 4.33023 8.535 3.34306 2.77813 2.76324 2.49388 2.40122 2.33505 2.32217 2.28568 2.13689 7.4567 2.08936 1.99102 1.99054 1.98167 1.91547 1.88014 1.78479 1.5878 2.92026 5.25981 1.28266 1.23984 1.21268 1.15458 1.15015 1.09333 0.882576 0.858965 0.838568 1.70409 1.37784 0.996508 0.718466 0.690392 0.667924 0.562978 0.56174 0.545748 0.498642 0.427588 0.3797 0.37003 0.364055 0.344226 0.347917 0.315094 0.311995 0.308142 0.30661 0.290973 0.224964 0.214586 0.184302 0.181799 0.166777 0.140627 0.119357 0.101289 0.0719954 0.062774 0.0229791 0.0168451 0.0054044 3.52699e-07 8.86833e-08
threshold=1.0000000180025095e-35 4.5000000000000009 1.5000000000000002 4.5000000000000009 6.5000000000000009 1.1738422566000002 3.0394991161000005 2.9055649309500002 8.5000000000000018 1.2862406091500003 1.6441225047000001 1.4876798837000003 6.5000000000000009 6.1902383925000013 4.9819432289500005 4.7797559646500014 3.9632031765000009 3.8408301738500001 1.0605369388000001 6.5000000000000009 3.6645414692000005 12.574870495000001 6.0822406683500008 2.2298079223500005 5.5018416206000014 6.1098488362500012 1.7097130996500003 6.5034658517000006 7.5000000000000009 1.6441225047000001 2.2827583431000007 2.1696782204500002 2.1888822251500004 8.5000000000000018 1.8225438598500003 6.5000000000000009 8.136471279100002 16.950536445500003 6.1902383925000013 4.6835979341500016 1.1738422566000002 4.1478709729000007 1.0868782898500002 2.3836376088500004 2.4186367150500003 15.823367400000002 2.5000000000000004 2.3169726926500007 4.2852715914500008 6.5000000000000009 2.0962974473000004 3.3785128159500002 7.5000000000000009 0.39965396425000005 3.2180203651000006 3.6251492602500002 11.500000000000002 0.14811368335000002 9.5000000000000018 3.3306102492000007 5.0534426236000014 10.785893566500002 10.500000000000002 13.500000000000002 2.7610918979000005 7.5000000000000009 4.9819432289500005 11.500000000000002 2.4956925800000005 11.500000000000002 3.2359200840000004 2.7904934170500004 0.77095811785000012 13.500000000000002 9.5000000000000018 2.4624754917000007 5.5000000000000009 9.5000000000000018 3.3167685221500007 1.4876798837000003 2.6912818731500008 8.5000000000000018 3.2293783507000007 13.259893312000001 5.6298717062000003 5.9795072238000007 5.519505038250001 5.6545467070500015 5.8783116481500004 5.8357329142500012 0.94527883845000016 2.8835607226000004 4.1097720902000008 11.924693123500001 1.1738422566000002 4.6835979341500016 5.3958396032000007 5.1776687898000011 5.0534426236000014 0.6335547210500001 0.30692446365000009 1.5000000000000002 10.500000000000002 4.4217784630000017 8.5000000000000018 0.27501582520000006 5.4016133294500008 4.5342349649500013 3.1091297718000006 4.4923562197000004 3.3644080200500004 2.4612744748000002 1.7898783121000001 3.4818016820500004 0.3732466127500001 1.5000000000000002 9.934936921550003 13.500000000000002 1.5000000000000002 5.8783116481500004 10.145511244500002
decision_type=2 2 2 2 2 2 2 2 2 2 2 2 2 2 2 2 2 2 2 2 2 2 2 2 2 2 2 2 2 2 2 2 2 2 2 2 2 2 2 2 2 2 2 2 2 2 2 2 2 2 2 2 2 2 2 2 2 2 2 2 2 2 2 2 2 2 2 2 2 2 2 2 2 2 2 2 2 2 2 2 2 2 2 2 2 2 2 2 2 2 2 2 2 2 2 2 2 2 2 2 2 2 2 2 2 2 2 2 2 2 2 2 2 2 2 2 2 2 2 2 2
left_child=-1 5 6 4 17 18 7 9 -9 28 12 -12 94 14 15 24 -17 26 57 20 21 22 23 -6 35 33 -4 102 53 30 -13 34 -33 89 112 41 38 61 39 63 -14 -8 114 47 -45 -39 -40 81 49 58 62 -52 -28 90 -44 110 -54 -2 -7 -19 -18 -38 -51 64 -15 78 98 -22 111 84 -29 -25 99 74 75 -37 101 -41 -66 -74 -77 -34 108 -36 86 87 96 -86 115 -26 -3 -59 -84 120 -11 109 97 -16 107 100 105 -70 -27 -65 -49 -30 -98 -61 -82 -43 -56 -46 -31 -112 -21 -50 -90 -104 -118 -71 -63
right_child=1 2 3 -5 19 48 13 8 -10 10 11 29 40 36 69 16 60 59 -20 42 67 -23 -24 71 25 27 52 70 72 31 -32 32 43 -35 83 73 37 45 46 77 -42 95 54 44 68 -47 -48 104 88 50 51 -53 56 -55 55 -57 -58 91 -60 66 -62 93 -64 103 65 -67 -68 -69 76 119 -72 -73 79 -75 -76 80 -78 -79 -80 -81 82 -83 92 -85 85 -87 -88 -89 116 -91 -92 -93 -94 -95 -96 -97 106 -99 -100 -101 -102 -103 117 -105 -106 -107 -108 -109 -110 -111 113 -113 -114 -115 -116 -117 118 -119 -120 -121 -122
leaf_value=-0.014773919104986705 -0.032962000986243307 -0.24459849119514951 -0.36558761622583436 -0.18225287376393684 -0.83692230144975577 -0.20477834682664514 -0.5117525218263731 -0.20745053464806384 -1.580058580284559 -0.00021975915670104508 -1.5248004830770483 -1.4862134747677396 -0.66779619619681319 -0.35973137246619924 -0.15098703655599366 -1.3543823346892245 -0.00041105220484770577 -0.41114485969072612 -0.80795852404754354 -0.093546655066580109 -0.32568077750513108 -0.14246231425764208 -1.8771740561759118 -0.27473076322391876 -0.26522041647451805 -0.15762679790154535 -0.26146332156528357 -0.11694801704146618 -0.00016406540201098545 -0.00020608349860448834 -0.23574224000798216 -0.6873681667777336 -0.00027981987668287029 -1.2187536630010232 -0.30079232615782681 -0.40972485962543059 -0.27449690919436359 -0.12561224033418181 -0.0002447169919567423 -0.00062114293415080108 -1.3170240707086682 -0.00014755662534583276 -1.0486557791822615 -0.53588043150614928 -0.084816786075460712 -0.5300814047112119 -0.72540934486589359 -0.00027708216440331914 -0.13151605496387561 -0.27162950707077022 -0.57382661007403923 -0.00044294730512864627 -0.66366025913150684 -0.59566758697554356 -0.38620868586018292 -0.78052727388096266 -0.055589927397479123 -0.33409721136639647 -0.10122725433735885 -0.00038844658714602448 -0.31690731919801191 -7.4098900517412559e-06 -0.061087035442214201 -0.00015357134493863551 -0.00017895020165203807 -0.67224477527439908 -0.27122697166810456 -0.0011843406010500449 -0.12462255691770002 -0.00026529803054242478 -0.43358500549847134 -0.00033249465383975254 -0.23337158898069094 -0.00056431495208159857 -0.30505845373019908 -0.00053875329188340091 -0.33638307561774761 -0.17455343831828418 -0.28327028453331476 -0.1293458287756637 -0.094648680033929941 -0.32812033888738656 -0.181607191048832 -6.3841875668869868e-05 -0.20167816898973465 -0.19442908041173421 -0.00045705804998791559 -0.42535716393203393 -0.00057636977367359662 -0.00012674460461788631 -0.0003668317222719885 -0.053858573296918968 -0.00023020645409206424 -0.12577352606582007 -0.1683656242091931 -0.00025100711132833813 -0.00036181146466196827 -0.30325387788799996 -0.00083476760527470453 -0.0013688905748815792 -0.00043836093341427052 -0.00031999839590062039 -0.042487399154516853 -0.13666901392165409 -0.14987654676630266 -0.16740801993449572 -0.12227127946541877 -0.13048120816644751 -0.0002641480494811656 -0.14646167290123954 -0.00043133848391139194 -0.00028998910173765399 -0.10367139633233852 -0.095960181712718418 -0.00014349071453922707 -0.18476741911437614 -0.039986234520071454 -0.00013196336089082959 -0.0019498517845930995 -1.8513695330159946e-05 -0.00013788557756243234
leaf_weight=1071.936050914228 0.14330095797777065 0.39242937730159377 1.2972368058981358 1.8164850968169037 0.83267238351982109 3.8207499210257065 0.53491458634380418 0.1455755995120861 0.36600001738406718 0.058000002754851177 0.18477922934107383 0.16900000802706816 0.48800002317875601 1.2219811099348596 0.81551576103083812 0.13007619068957854 0.086000004084780812 0.56372987874783609 0.50709501560777426 0.027000001282431074 1.0832700695609672 0.23825349949765939 0.033000001567415782 0.38167634303681552 0.063968055415898895 0.48242726107127998 0.26746718387585167 0.14099774416536082 0.033000001567416226 0.029000001377424423 0.96275257237721235 0.38600001833401609 0.026000001234934067 0.10500000498723239 2.5771698007592936 0.15848522842861834 0.4909974455367776 0.16784036345779874 0.02400000113993872 0.15000000712461758 0.59200002811849117 0.024000001139938831 1.0232852339977401 1.1456854934804144 0.0470000022323801 0.86061814974527806 0.83596384956035763 0.036000001709908136 2.4206059098942214 1.2522819264559073 0.38698877068236459 0.052000002469867468 2.3326526616001506 0.21966176840942353 0.34765547746792469 2.531636934960261 0.042163990670814999 0.33608253207057714 1.1558491704054175 0.035000001662410685 0.099674292840063572 0.027000001282431185 0.22079115721862752 0.059000002802349516 0.042000001994892733 0.68867174710612744 1.175091379554942 0.050000002374872454 0.058139831875450798 0.087000004132278153 1.6508051039418203 0.072000003419816494 1.1881588363321498 0.089000004227273055 0.86066812812350679 0.12700000603217665 1.6382166217081247 0.22820909635629505 0.29291207180358469 1.0135393746895716 0.67895292607136104 1.5608538612723348 1.6762047704542054 0.02400000113993872 0.5448809434892613 2.9522177241742611 0.13000000617466856 0.2407698449678719 0.057000002707354613 0.029000001377426088 0.030000001424923539 0.064075851929374039 0.044000002089887746 0.64396056323312223 0.087395596550777555 0.088000004179775715 0.040000001899898052 0.15587685455102473 0.076000003609806299 0.20100000954698771 0.073000003467313945 0.076000003609806299 0.11848527251277119 0.039849507273174822 0.79429268196690828 0.026275020674802363 0.86843047186266631 0.31038932281080633 0.056000002659857273 0.098435980500653386 0.037000001757405698 0.075000003562308848 1.0116651355056092 0.023036746773868799 0.025000001187436283 1.2250805541407315 0.098892801674082875 0.027000001282431185 0.021000000997446477 0.033000001567415893 0.071000003372319043
leaf_count=1071936 129 337 899 458 614 3093 471 127 366 58 179 169 488 1100 717 130 86 361 488 27 766 212 33 265 55 416 211 123 33 29 860 386 26 105 2278 152 424 164 24 150 592 24 869 1073 47 733 758 36 2141 969 270 52 1798 207 252 2023 31 256 1011 35 81 27 211 59 42 673 868 50 49 87 1500 72 1018 89 675 127 1429 195 246 897 626 1379 1478 24 457 2509 130 216 57 29 30 56 44 582 76 88 40 141 76 201 73 76 112 29 682 20 778 265 56 83 37 75 910 23 25 861 87 27 21 33 71
internal_value=-0.0359435 -0.406227 -0.445482 -0.562165 -0.614228 -0.238928 -0.394981 -0.455428 -1.28725 -0.419211 -0.464948 -0.394693 -1.00772 -0.34308 -0.293117 -0.362339 -0.901901 -0.46804 -0.567603 -0.738377 -0.571994 -0.730462 -0.819127 -0.658538 -0.325914 -0.434841 -0.55186 -0.352585 -0.237166 -0.36098 -0.527969 -0.335754 -0.386603 -0.984497 -0.246017 -0.253462 -0.449412 -0.338217 -0.508511 -0.422886 -1.10512 -0.418818 -0.833287 -0.353343 -0.40908 -0.481054 -0.707305 -0.269776 -0.201739 -0.228433 -0.331218 -0.51859 -0.626644 -0.418961 -0.841024 -0.736616 -0.655547 -0.25262 -0.183196 -0.297528 -0.221772 -0.191921 -0.245962 -0.464816 -0.476245 -0.570946 -0.235539 -0.312621 -0.309368 -0.201568 -0.416168 -0.239108 -0.176966 -0.209896 -0.214914 -0.176862 -0.32284 -0.120126 -0.255973 -0.193184 -0.147827 -0.323084 -0.155127 -0.298123 -0.205695 -0.226284 -0.158494 -0.310514 -0.149037 -0.225447 -0.230644 -0.308964 -0.177235 -0.111163 -0.128713 -0.0938318 -0.168848 -0.201445 -0.103085 -0.0499663 -0.0914309 -0.0844116 -0.138898 -0.0962412 -0.144117 -0.13286 -0.117472 -0.120345 -0.08835 -0.130741 -0.36391 -0.0563911 -0.101059 -0.0741437 -0.0782787 -0.153865 -0.0299011 -0.0378826 -0.0372404 -0.000236696 -0.000123836
internal_weight=1133.12 61.1799 49.4181 14.6217 12.8052 11.7618 34.7964 15.7156 0.511576 15.204 12.027 10.8016 1.2254 19.0808 13.2368 7.3691 0.31575 6.09973 1.05055 6.70549 2.69087 1.5576 1.31935 1.28635 7.05335 2.61768 3.93952 2.41972 3.17706 10.6168 1.13175 9.48502 5.84319 0.197968 3.64183 4.43566 5.844 2.26142 3.58259 2.72262 1.08 0.745351 4.01461 5.45719 3.04004 1.02846 0.859964 2.41715 10.7112 6.88866 1.91206 0.438989 2.64228 0.642091 3.96261 2.93933 2.37482 0.543459 4.9766 2.16021 0.185674 1.23296 1.47307 2.34441 2.24556 1.02358 1.59648 1.13327 1.89436 5.86769 1.7918 0.453676 2.53497 3.69031 3.60131 2.74064 1.77236 0.378209 0.334912 2.2017 2.58216 1.58685 2.45516 2.60117 5.74769 3.73787 2.00982 0.785651 3.82258 0.0929681 0.422429 0.400158 1.7202 0.741961 0.145396 0.210436 1.87982 0.971393 0.421389 0.333275 0.132275 0.13414 0.627913 0.0988495 0.830293 0.059275 0.90843 0.345389 0.734953 0.122436 0.407692 0.122 1.04067 0.0600367 0.052 3.64569 0.176893 0.145485 0.119893 0.12 0.098
internal_count=1123100 51164 41462 10270 9812 9702 31192 14230 493 13737 10921 9707 1214 16962 11685 6577 297 4544 929 5268 2012 1196 984 951 6280 2367 2939 2178 2816 9528 1029 8499 5258 189 3241 3913 5277 2001 3276 2494 1080 666 3256 4872 2749 897 782 2123 8773 5606 1502 322 2040 574 3204 2335 1829 441 4104 1605 167 1104 1180 2149 2061 961 1244 816 1676 5108 1623 337 2242 3247 3158 2483 1554 345 288 1915 2331 1405 2204 2302 4988 3182 1806 673 3167 84 367 312 1522 680 134 195 1676 858 376 327 126 125 555 88 718 53 818 300 682 107 312 122 939 60 52 3002 165 139 108 120 98
is_linear=0
shrinkage=0.05


Tree=47
num_leaves=47
num_cat=0
split_feature=9 1 1 9 10 10 9 1 1 14 16 10 1 1 14 11 16 14 1 9 14 11 11 14 8 11 11 8 14 8 14 13 11 11 11 14 11 14 1 11 11 11 14 14 14 14
